{"learner":{"attributes":{"scikit_learn":"{\"_estimator_type\": \"regressor\"}"},"feature_names":[],"feature_types":[],"gradient_booster":{"model":{"gbtree_model_param":{"num_parallel_tree":"1","num_trees":"100"},"iteration_indptr":[0,1,2,3,4,5,6,7,8,9,10,11,12,13,14,15,16,17,18,19,20,21,22,23,24,25,26,27,28,29,30,31,32,33,34,35,36,37,38,39,40,41,42,43,44,45,46,47,48,49,50,51,52,53,54,55,56,57,58,59,60,61,62,63,64,65,66,67,68,69,70,71,72,73,74,75,76,77,78,79,80,81,82,83,84,85,86,87,88,89,90,91,92,93,94,95,96,97,98,99,100],"tree_info":[0,0,0,0,0,0,0,0,0,0,0,0,0,0,0,0,0,0,0,0,0,0,0,0,0,0,0,0,0,0,0,0,0,0,0,0,0,0,0,0,0,0,0,0,0,0,0,0,0,0,0,0,0,0,0,0,0,0,0,0,0,0,0,0,0,0,0,0,0,0,0,0,0,0,0,0,0,0,0,0,0,0,0,0,0,0,0,0,0,0,0,0,0,0,0,0,0,0,0,0],"trees":[{"base_weights":[2.6060802E-6,-1.3196182E1,1.4845711E1,2.057514E0,-2.4579811E1,2.3666065E1,-1.3587527E1,-4.0243702E1,1.25299425E1,-2.910315E1,2.7339064E1,3.660136E1,6.2950516E0,-2.6218166E1,1.8228294E1,-1.4394628E1,-1.3935231E0,2.7785892E1,-1.3827219E1,-1.8107582E1,-4.317124E1,1.0954402E1,1.348177E0,-3.4352875E-1,5.1402218E1,-8.902003E0,1.0691997E1,-1.2191811E1,-6.553334E0,7.168323E0,1.844925E-1,4.159434E1,-2.6264923E0,-1.7824413E1,2.5408215E1,-2.928907E1,1.4268867E1,-2.0557201E1,-2.192936E1,1.0537716E1,-1.2109356E1,-4.061915E0,6.0247616E1,1.3628785E1,-2.6942392E1,-1.3905804E1,1.4984671E1,3.21057E0,1.4667574E1,-7.114988E0,1.2260106E1,9.404325E0,2.4751283E-1,-1.7587477E1,-3.187517E0,-1.1742765E0,-1.1689771E1,4.304059E-1,-1.1974436E1,-1.274954E1,1.0921679E1,8.91994E0,1.9928596E1,-8.640454E0,8.362545E0,-9.404449E0,-7.616615E-2,-6.6783145E-2,6.0383906E0],"categories":[],"categories_nodes":[],"categories_segments":[],"categories_sizes":[],"default_left":[0,0,0,0,0,0,0,0,0,0,0,0,0,0,0,0,0,0,0,0,0,0,0,0,0,0,0,0,0,0,0,0,0,0,0,0,0,0,0,0,0,0,0,0,0,0,0,0,0,0,0,0,0,0,0,0,0,0,0,0,0,0,0,0,0,0,0,0,0],"id":0,"left_children":[1,3,5,7,9,11,13,15,17,19,21,23,25,27,29,-1,-1,31,33,35,37,-1,-1,39,41,43,-1,-1,45,-1,-1,47,49,-1,51,53,-1,-1,55,-1,57,59,61,63,65,-1,67,-1,-1,-1,-1,-1,-1,-1,-1,-1,-1,-1,-1,-1,-1,-1,-1,-1,-1,-1,-1,-1,-1],"loss_changes":[1.9982484E4,9.427266E3,1.2359544E4,1.1136167E4,8.0759004E3,8.083463E3,5.300163E3,1.154499E3,8.426272E3,3.7041855E3,4.6475977E2,1.1500789E4,7.89853E3,2.2859907E3,3.8450195E2,0E0,0E0,5.5685684E3,1.581878E4,1.4610357E4,4.959795E3,0E0,0E0,3.346625E3,7.603758E3,5.2447627E3,0E0,0E0,4.980572E3,0E0,0E0,1.5057217E3,5.5556475E3,0E0,7.041992E2,8.137503E3,0E0,0E0,2.302798E3,0E0,2.3168523E3,6.213476E3,4.768047E2,4.429711E3,8.151255E2,0E0,3.1734296E2,0E0,0E0,0E0,0E0,0E0,0E0,0E0,0E0,0E0,0E0,0E0,0E0,0E0,0E0,0E0,0E0,0E0,0E0,0E0,0E0,0E0,0E0],"parents":[2147483647,0,0,1,1,2,2,3,3,4,4,5,5,6,6,7,7,8,8,9,9,10,10,11,11,12,12,13,13,14,14,17,17,18,18,19,19,20,20,23,23,24,24,25,25,28,28,31,31,32,32,34,34,35,35,38,38,40,40,41,41,42,42,43,43,44,44,46,46],"right_children":[2,4,6,8,10,12,14,16,18,20,22,24,26,28,30,-1,-1,32,34,36,38,-1,-1,40,42,44,-1,-1,46,-1,-1,48,50,-1,52,54,-1,-1,56,-1,58,60,62,64,66,-1,68,-1,-1,-1,-1,-1,-1,-1,-1,-1,-1,-1,-1,-1,-1,-1,-1,-1,-1,-1,-1,-1,-1],"split_conditions":[5E0,4.1694977E1,7.044588E1,5.5603995E0,9.9516464E1,8E0,1E1,2E0,3E0,8.21052E1,1E0,1E0,4.129519E1,7.457238E1,1.1E1,-1.4394628E1,-1.3935231E0,3E0,3E0,7.920692E1,1E0,1.0954402E1,1.348177E0,1.4572163E1,4.363703E0,2E0,1.0691997E1,-1.2191811E1,1E0,7.168323E0,1.844925E-1,1.1696565E1,3.6859837E1,-1.7824413E1,4E0,3E0,1.4268867E1,-2.0557201E1,3E0,1.0537716E1,7E0,6E0,1E0,7.624981E0,3E0,-1.3905804E1,7.981309E1,3.21057E0,1.4667574E1,-7.114988E0,1.2260106E1,9.404325E0,2.4751283E-1,-1.7587477E1,-3.187517E0,-1.1742765E0,-1.1689771E1,4.304059E-1,-1.1974436E1,-1.274954E1,1.0921679E1,8.91994E0,1.9928596E1,-8.640454E0,8.362545E0,-9.404449E0,-7.616615E-2,-6.6783145E-2,6.0383906E0],"split_indices":[0,3,3,3,3,0,0,2,0,3,0,2,3,3,0,0,0,2,1,3,2,0,0,3,3,2,0,0,1,0,0,3,3,0,1,1,0,0,2,0,0,0,1,3,1,0,3,0,0,0,0,0,0,0,0,0,0,0,0,0,0,0,0,0,0,0,0,0,0],"split_type":[0,0,0,0,0,0,0,0,0,0,0,0,0,0,0,0,0,0,0,0,0,0,0,0,0,0,0,0,0,0,0,0,0,0,0,0,0,0,0,0,0,0,0,0,0,0,0,0,0,0,0,0,0,0,0,0,0,0,0,0,0,0,0,0,0,0,0,0,0],"sum_hessian":[1E2,5.3E1,4.7E1,2.3E1,3E1,3.6E1,1.1E1,4E0,1.9E1,2.8E1,2E0,2E1,1.6E1,8E0,3E0,3E0,1E0,1.2E1,7E0,1.7E1,1.1E1,1E0,1E0,6E0,1.4E1,1.1E1,5E0,4E0,4E0,2E0,1E0,8E0,4E0,3E0,4E0,1.5E1,2E0,4E0,7E0,1E0,5E0,2E0,1.2E1,5E0,6E0,1E0,3E0,2E0,6E0,3E0,1E0,3E0,1E0,5E0,1E1,4E0,3E0,4E0,1E0,1E0,1E0,3E0,9E0,1E0,4E0,5E0,1E0,1E0,2E0],"tree_param":{"num_deleted":"0","num_feature":"4","num_nodes":"69","size_leaf_vector":"1"}},{"base_weights":[-1.4244929E-1,-9.766257E0,1.0687303E1,5.7417216E0,-1.6447031E1,1.7294565E1,-1.0575701E1,-3.132822E1,1.955772E1,-1.9297272E1,2.3238205E1,2.685973E1,4.4614463E0,-2.058894E1,1.4598011E1,-1.1155836E1,-1.1844945E0,3.1547235E1,-5.934952E0,-1.1945685E1,-3.300497E1,9.311242E0,1.1459508E0,-3.842294E-1,3.778293E1,-7.044614E0,2.6729992E1,-3.0923634E0,-2.8821833E1,5.734659E0,1.5681839E-1,4.5402834E-1,3.511228E1,-1.1347846E1,1.1494387E1,-1.7947525E1,1.1415092E1,-1.5623471E1,-1.6958555E1,8.957058E0,-1.0400554E1,-3.4526265E0,4.439245E1,9.493829E0,-2.0214048E1,1.0887404E1,3.8629436E0,3.0274098E0,-3.2177527E0,-3.5047417E1,-1.0913777E1,1.2058512E1,3.9728043E0,-6.955315E-1,7.9399295E0,-2.9384708E0,-1.0554845E1,3.1690283E0,-6.7197986E0,3.2710877E-1,-1.017827E1,-1.0837109E1,9.283427E0,6.912954E0,1.45478735E1,-7.3443856E0,6.3555326E0,-3.072546E0,-1.2007114E1,-5.676613E-2,1.4191006E0,-1.9349614E0,-1.2728992E1,5.8269677E0,-1.0738168E1],"categories":[],"categories_nodes":[],"categories_segments":[],"categories_sizes":[],"default_left":[0,0,0,0,0,0,0,0,0,0,0,0,0,0,0,0,0,0,0,0,0,0,0,0,0,0,0,0,0,0,0,0,0,0,0,0,0,0,0,0,0,0,0,0,0,0,0,0,0,0,0,0,0,0,0,0,0,0,0,0,0,0,0,0,0,0,0,0,0,0,0,0,0,0,0],"id":1,"left_children":[1,3,5,7,9,11,13,15,17,19,21,23,25,27,29,-1,-1,31,33,35,37,-1,-1,39,41,43,45,47,49,-1,-1,-1,51,-1,53,55,-1,-1,57,-1,59,61,63,65,67,-1,-1,69,-1,71,73,-1,-1,-1,-1,-1,-1,-1,-1,-1,-1,-1,-1,-1,-1,-1,-1,-1,-1,-1,-1,-1,-1,-1,-1],"loss_changes":[1.0630942E4,5.6891196E3,6.9264346E3,9.319399E3,4.746708E3,4.42195E3,3.325402E3,6.551206E2,4.1606133E3,3.2335742E3,3.3578906E2,6.2639326E3,4.544097E3,1.2072993E3,2.4434912E2,0E0,0E0,9.105078E2,3.2140012E3,8.1846064E3,2.7895186E3,0E0,0E0,2.4308596E3,4.2414766E3,2.8055322E3,3.274458E2,2.1933214E2,2.864287E2,0E0,0E0,0E0,3.5697266E2,0E0,8.8858563E2,2.8871836E3,0E0,0E0,1.4345405E3,0E0,1.6590747E3,4.489237E3,2.0615234E1,2.901914E3,9.729099E2,0E0,0E0,1.7328123E1,0E0,5.708242E2,2.9595974E3,0E0,0E0,0E0,0E0,0E0,0E0,0E0,0E0,0E0,0E0,0E0,0E0,0E0,0E0,0E0,0E0,0E0,0E0,0E0,0E0,0E0,0E0,0E0,0E0],"parents":[2147483647,0,0,1,1,2,2,3,3,4,4,5,5,6,6,7,7,8,8,9,9,10,10,11,11,12,12,13,13,14,14,17,17,18,18,19,19,20,20,23,23,24,24,25,25,26,26,27,27,28,28,32,32,34,34,35,35,38,38,40,40,41,41,42,42,43,43,44,44,47,47,49,49,50,50],"right_children":[2,4,6,8,10,12,14,16,18,20,22,24,26,28,30,-1,-1,32,34,36,38,-1,-1,40,42,44,46,48,50,-1,-1,-1,52,-1,54,56,-1,-1,58,-1,60,62,64,66,68,-1,-1,70,-1,72,74,-1,-1,-1,-1,-1,-1,-1,-1,-1,-1,-1,-1,-1,-1,-1,-1,-1,-1,-1,-1,-1,-1,-1,-1],"split_conditions":[5E0,3.517558E1,7.044588E1,5.5603995E0,9.9516464E1,8E0,1E1,2E0,3E0,8.21052E1,1E0,1E0,4.129519E1,6E0,1.1E1,-1.1155836E1,-1.1844945E0,1E0,2.369329E1,7.920692E1,1E0,9.311242E0,1.1459508E0,1.4572163E1,4.363703E0,2E0,1E1,2E0,8E0,5.734659E0,1.5681839E-1,4.5402834E-1,3E0,-1.1347846E1,2E0,5.9590347E1,1.1415092E1,-1.5623471E1,8.269653E1,8.957058E0,7E0,6E0,1E0,7.624981E0,3.854384E1,1.0887404E1,3.8629436E0,3E0,-3.2177527E0,7.162901E1,2E0,1.2058512E1,3.9728043E0,-6.955315E-1,7.9399295E0,-2.9384708E0,-1.0554845E1,3.1690283E0,-6.7197986E0,3.2710877E-1,-1.017827E1,-1.0837109E1,9.283427E0,6.912954E0,1.45478735E1,-7.3443856E0,6.3555326E0,-3.072546E0,-1.2007114E1,-5.676613E-2,1.4191006E0,-1.9349614E0,-1.2728992E1,5.8269677E0,-1.0738168E1],"split_indices":[0,3,3,3,3,0,0,2,2,3,0,2,3,0,0,0,0,0,3,3,2,0,0,3,3,2,0,2,0,0,0,0,0,0,0,3,0,0,3,0,0,0,1,3,3,0,0,1,0,3,1,0,0,0,0,0,0,0,0,0,0,0,0,0,0,0,0,0,0,0,0,0,0,0,0],"split_type":[0,0,0,0,0,0,0,0,0,0,0,0,0,0,0,0,0,0,0,0,0,0,0,0,0,0,0,0,0,0,0,0,0,0,0,0,0,0,0,0,0,0,0,0,0,0,0,0,0,0,0,0,0,0,0,0,0,0,0,0,0,0,0,0,0,0,0,0,0,0,0,0,0,0,0],"sum_hessian":[1E2,5.3E1,4.7E1,1.6E1,3.7E1,3.6E1,1.1E1,4E0,1.2E1,3.5E1,2E0,2E1,1.6E1,8E0,3E0,3E0,1E0,8E0,4E0,2.4E1,1.1E1,1E0,1E0,6E0,1.4E1,1.1E1,5E0,3E0,5E0,2E0,1E0,1E0,7E0,1E0,3E0,2.2E1,2E0,4E0,7E0,1E0,5E0,2E0,1.2E1,5E0,6E0,2E0,3E0,2E0,1E0,3E0,2E0,5E0,2E0,2E0,1E0,1.6E1,6E0,1E0,6E0,4E0,1E0,1E0,1E0,3E0,9E0,1E0,4E0,5E0,1E0,1E0,1E0,1E0,2E0,1E0,1E0],"tree_param":{"num_deleted":"0","num_feature":"4","num_nodes":"75","size_leaf_vector":"1"}},{"base_weights":[-1.8484282E-1,4.5624986E0,-1.1572301E1,-1.4840536E1,1.0371232E1,-1.1063944E1,-2.2665448E0,-2.6026726E-1,-4.152765E1,-1.1984892E0,2.1983757E1,1.6626009E1,-7.118978E0,-1.260647E1,1.9545712E1,-3.4998884E0,-1.355E1,2.5639688E1,-1.2643495E1,-8.158965E-1,2.9622494E1,-4.672344E0,2.8569752E1,-1.4336398E1,1.595708E1,-1.097931E1,-3.9509091E0,-5.5642474E-1,1.0329281E1,4.6417484E0,3.5365032E1,-3.292033E1,2.3668911E0,-9.929505E0,1.5461313E1,2.2950727E1,1.1906206E1,7.246216E-1,1.0944819E1,-2.3474976E1,-5.635683E0,5.9172573E0,1.332962E-1,7.79883E0,-6.3386803E0,-6.963065E0,6.498743E0,1.3278828E1,-1.3685372E0,-9.006363E-1,-1.2311855E1,-1.4351732E0,5.895652E0,-9.211541E0,9.2506895E0,8.510735E0,-7.9360037E0,-2.1576254E0,-1.0166737E1,1.3987588E0,-4.442028E0],"categories":[],"categories_nodes":[],"categories_segments":[],"categories_sizes":[],"default_left":[0,0,0,0,0,0,0,0,0,0,0,0,0,0,0,0,0,0,0,0,0,0,0,0,0,0,0,0,0,0,0,0,0,0,0,0,0,0,0,0,0,0,0,0,0,0,0,0,0,0,0,0,0,0,0,0,0,0,0,0,0],"id":2,"left_children":[1,3,5,7,9,-1,11,13,15,17,19,21,23,25,27,-1,-1,29,31,33,35,-1,37,39,41,-1,43,-1,-1,45,47,49,51,-1,53,55,-1,-1,-1,57,59,-1,-1,-1,-1,-1,-1,-1,-1,-1,-1,-1,-1,-1,-1,-1,-1,-1,-1,-1,-1],"loss_changes":[5.5128735E3,8.268823E3,6.981575E3,6.6039814E3,7.550153E3,0E0,2.2268816E3,3.1807458E3,1.2506836E2,9.231904E3,4.900665E3,2.367931E3,3.39321E3,1.516666E3,1.6566138E3,0E0,0E0,1.6737539E3,6.4695435E3,4.7154897E3,4.993047E2,0E0,7.397146E2,1.0603848E3,2.834276E2,0E0,4.1502827E3,0E0,0E0,2.3990334E3,2.3334648E3,2.062998E3,1.7008612E3,0E0,5.205478E3,4.765814E3,0E0,0E0,0E0,9.4327344E2,9.1904816E2,0E0,0E0,0E0,0E0,0E0,0E0,0E0,0E0,0E0,0E0,0E0,0E0,0E0,0E0,0E0,0E0,0E0,0E0,0E0,0E0],"parents":[2147483647,0,0,1,1,2,2,3,3,4,4,6,6,7,7,8,8,9,9,10,10,11,11,12,12,13,13,14,14,17,17,18,18,19,19,20,20,22,22,23,23,24,24,26,26,29,29,30,30,31,31,32,32,34,34,35,35,39,39,40,40],"right_children":[2,4,6,8,10,-1,12,14,16,18,20,22,24,26,28,-1,-1,30,32,34,36,-1,38,40,42,-1,44,-1,-1,46,48,50,52,-1,54,56,-1,-1,-1,58,60,-1,-1,-1,-1,-1,-1,-1,-1,-1,-1,-1,-1,-1,-1,-1,-1,-1,-1,-1,-1],"split_conditions":[7.044588E1,2E0,1E0,3E0,3E0,-1.1063944E1,1E0,2E0,3E0,1E0,1.5434046E1,1E0,8E0,5.5603995E0,2E0,-3.4998884E0,-1.355E1,2.4629536E1,5E0,2E0,4.399229E1,-4.672344E0,7.6580765E1,2E0,1.1E1,-1.097931E1,1E0,-5.5642474E-1,1.0329281E1,8E0,8E0,3E0,6.557916E1,-9.929505E0,6E0,4.3209194E1,1.1906206E1,7.246216E-1,1.0944819E1,8.269653E1,2E0,5.9172573E0,1.332962E-1,7.79883E0,-6.3386803E0,-6.963065E0,6.498743E0,1.3278828E1,-1.3685372E0,-9.006363E-1,-1.2311855E1,-1.4351732E0,5.895652E0,-9.211541E0,9.2506895E0,8.510735E0,-7.9360037E0,-2.1576254E0,-1.0166737E1,1.3987588E0,-4.442028E0],"split_indices":[3,0,2,1,1,0,0,2,2,1,3,1,0,3,1,0,0,3,0,2,3,0,3,1,0,0,2,0,0,0,0,0,3,0,0,3,0,0,0,3,2,0,0,0,0,0,0,0,0,0,0,0,0,0,0,0,0,0,0,0,0],"split_type":[0,0,0,0,0,0,0,0,0,0,0,0,0,0,0,0,0,0,0,0,0,0,0,0,0,0,0,0,0,0,0,0,0,0,0,0,0,0,0,0,0,0,0,0,0,0,0,0,0,0,0,0,0,0,0,0,0,0,0,0,0],"sum_hessian":[1E2,7.1E1,2.9E1,1.6E1,5.5E1,7E0,2.2E1,1.1E1,5E0,2.8E1,2.7E1,4E0,1.8E1,7E0,4E0,1E0,4E0,8E0,2E1,7E0,2E1,1E0,3E0,1.4E1,4E0,1E0,6E0,2E0,2E0,3E0,5E0,8E0,1.2E1,2E0,5E0,1.4E1,6E0,1E0,2E0,6E0,8E0,3E0,1E0,2E0,4E0,1E0,2E0,4E0,1E0,2E0,6E0,9E0,3E0,1E0,4E0,1.3E1,1E0,3E0,3E0,4E0,4E0],"tree_param":{"num_deleted":"0","num_feature":"4","num_nodes":"61","size_leaf_vector":"1"}},{"base_weights":[-3.7588128E-1,6.607871E0,-4.516611E0,-1.1426817E1,1.3456932E1,-8.926708E0,-2.7875466E0,1.6318373E1,-1.9405567E1,6.333524E0,2.389006E1,-1.0530286E1,2.5193727E0,8.399586E-1,6.5033092E0,-2.865678E1,-6.2732415E0,1.4219533E1,-1.7014004E1,-4.4513932E-1,2.9693562E1,-1.6477514E1,1.1048859E1,8.878361E0,-6.3816967E0,-2.8869076E0,-1.1441483E1,6.229175E0,-1.822351E1,1.2709898E0,2.1271946E1,-2.6096043E1,2.8971233E0,1.1203917E1,1.07909355E1,1.1037887E1,-2.0147997E1,4.5858736E0,1.7160568E0,-1.28249E1,1.781864E1,-3.1044765E1,4.426389E0,-6.628429E0,-9.9146235E-1,5.499218E0,-3.5524683E0,7.018187E0,6.4438134E-1,-9.144999E0,-1.9401295E0,5.4244704E0,-1.6621445E0,8.938542E0,-3.971493E0,-1.0501653E1,-2.9406347E0,1.1330224E-1,6.589234E-1,9.312468E0,-7.5928707E0,6.8243694E-1,8.896665E0,-9.662321E-1,-1.115867E1,5.3674307E0,-2.3242261E0],"categories":[],"categories_nodes":[],"categories_segments":[],"categories_sizes":[],"default_left":[0,0,0,0,0,0,0,0,0,0,0,0,0,0,0,0,0,0,0,0,0,0,0,0,0,0,0,0,0,0,0,0,0,0,0,0,0,0,0,0,0,0,0,0,0,0,0,0,0,0,0,0,0,0,0,0,0,0,0,0,0,0,0,0,0,0,0],"id":3,"left_children":[1,3,5,7,9,-1,11,13,15,17,19,21,23,-1,-1,25,27,29,31,-1,33,35,37,39,41,-1,-1,-1,43,45,47,49,-1,-1,51,53,55,-1,57,59,61,63,65,-1,-1,-1,-1,-1,-1,-1,-1,-1,-1,-1,-1,-1,-1,-1,-1,-1,-1,-1,-1,-1,-1,-1,-1],"loss_changes":[2.9505464E3,4.8475557E3,2.7100144E3,2.7517585E3,1.9296353E3,0E0,2.5330254E3,1.5665564E2,9.136384E2,3.5560698E3,1.6638887E3,3.3904604E3,2.1509253E3,0E0,0E0,5.3533594E2,1.9938977E3,1.2514221E3,1.4631506E3,0E0,8.989238E2,2.2422876E3,2.1104803E2,4.497253E3,4.4023857E3,0E0,0E0,0E0,1.5799475E2,1.5592443E3,3.149829E2,1.4733228E2,0E0,0E0,5.764461E2,1.7605016E3,2.4237246E3,0E0,1.0991669E0,4.619256E3,2.876397E3,7.359009E2,2.105663E3,0E0,0E0,0E0,0E0,0E0,0E0,0E0,0E0,0E0,0E0,0E0,0E0,0E0,0E0,0E0,0E0,0E0,0E0,0E0,0E0,0E0,0E0,0E0,0E0],"parents":[2147483647,0,0,1,1,2,2,3,3,4,4,6,6,7,7,8,8,9,9,10,10,11,11,12,12,15,15,16,16,17,17,18,18,20,20,21,21,22,22,23,23,24,24,28,28,29,29,30,30,31,31,34,34,35,35,36,36,38,38,39,39,40,40,41,41,42,42],"right_children":[2,4,6,8,10,-1,12,14,16,18,20,22,24,-1,-1,26,28,30,32,-1,34,36,38,40,42,-1,-1,-1,44,46,48,50,-1,-1,52,54,56,-1,58,60,62,64,66,-1,-1,-1,-1,-1,-1,-1,-1,-1,-1,-1,-1,-1,-1,-1,-1,-1,-1,-1,-1,-1,-1,-1,-1],"split_conditions":[3.517558E1,7.624981E0,3.6859837E1,3.3530428E0,2.4629536E1,-8.926708E0,2E0,5E0,6E0,2.0008904E1,2E0,9E0,6.793052E1,8.399586E-1,6.5033092E0,3.9138708E0,7E0,1E0,9E0,-4.4513932E-1,4E0,1E0,1.1E1,2E0,1E0,-2.8869076E0,-1.1441483E1,6.229175E0,4E0,1.4572163E1,9E0,8E0,2.8971233E0,1.1203917E1,2.8797941E1,1E0,6.557916E1,4.5858736E0,1.2E1,3.7384266E1,4.399229E1,3E0,3E0,-6.628429E0,-9.9146235E-1,5.499218E0,-3.5524683E0,7.018187E0,6.4438134E-1,-9.144999E0,-1.9401295E0,5.4244704E0,-1.6621445E0,8.938542E0,-3.971493E0,-1.0501653E1,-2.9406347E0,1.1330224E-1,6.589234E-1,9.312468E0,-7.5928707E0,6.8243694E-1,8.896665E0,-9.662321E-1,-1.115867E1,5.3674307E0,-2.3242261E0],"split_indices":[3,3,3,3,3,0,1,0,0,3,0,0,3,0,0,3,0,2,0,0,1,0,0,0,2,0,0,0,1,3,0,0,0,0,3,2,3,0,0,3,3,1,0,0,0,0,0,0,0,0,0,0,0,0,0,0,0,0,0,0,0,0,0,0,0,0,0],"split_type":[0,0,0,0,0,0,0,0,0,0,0,0,0,0,0,0,0,0,0,0,0,0,0,0,0,0,0,0,0,0,0,0,0,0,0,0,0,0,0,0,0,0,0,0,0,0,0,0,0,0,0,0,0,0,0,0,0,0,0,0,0,0,0,0,0,0,0],"sum_hessian":[1E2,3.7E1,6.3E1,1E1,2.7E1,3E0,6E1,2E0,8E0,1.7E1,1E1,2.4E1,3.6E1,1E0,1E0,4E0,4E0,1.3E1,4E0,2E0,8E0,1.9E1,5E0,2.1E1,1.5E1,2E0,2E0,1E0,3E0,5E0,8E0,3E0,1E0,5E0,3E0,2E0,1.7E1,3E0,2E0,6E0,1.5E1,4E0,1.1E1,2E0,1E0,2E0,3E0,7E0,1E0,2E0,1E0,2E0,1E0,1E0,1E0,6E0,1.1E1,1E0,1E0,1E0,5E0,7E0,8E0,1E0,3E0,5E0,6E0],"tree_param":{"num_deleted":"0","num_feature":"4","num_nodes":"67","size_leaf_vector":"1"}},{"base_weights":[-2.8549606E-1,1.4130762E0,-1.4311366E1,-7.301673E0,3.9707754E0,-2.2366184E1,1.4623546E1,9.2196655E-1,-1.4861524E1,-3.3058023E0,6.693098E0,-2.548898E1,3.9242592E-1,5.467717E0,1.1128784E0,-1.0364528E1,1.0342237E1,-2.3239374E1,-1.6022721E-1,9.724978E0,-1.2803404E1,-4.638013E0,8.858709E0,-6.085457E0,-9.282774E0,-7.616191E0,-5.3132677E0,-9.20459E0,-8.103712E0,-1.3304043E1,1.3036998E1,-4.651248E0,6.6468625E0,-1.0692385E1,-1.2306371E0,1.3870616E1,-1.1907709E1,1.2877395E1,-6.725731E-1,3.49926E-1,-3.0883818E0,4.583134E-1,-5.167241E0,-4.3144113E-1,-3.7106245E0,-8.212973E-1,-5.165522E0,6.055836E0,-1.8918687E-1,4.2847004E0,-6.6103244E0,4.1646113E0,-4.829155E0,7.139649E-1,5.5278125E0,-6.00069E0,-1.400824E0,1.9577669E0,8.30346E0,-2.9020426E0,2.1861863E0],"categories":[],"categories_nodes":[],"categories_segments":[],"categories_sizes":[],"default_left":[0,0,0,0,0,0,0,0,0,0,0,0,0,0,0,0,0,0,0,0,0,0,0,0,0,0,0,0,0,0,0,0,0,0,0,0,0,0,0,0,0,0,0,0,0,0,0,0,0,0,0,0,0,0,0,0,0,0,0,0,0],"id":4,"left_children":[1,3,5,7,9,11,13,15,17,19,21,23,-1,-1,-1,25,-1,27,29,31,33,35,37,39,-1,-1,41,43,-1,45,47,49,-1,-1,51,53,55,57,59,-1,-1,-1,-1,-1,-1,-1,-1,-1,-1,-1,-1,-1,-1,-1,-1,-1,-1,-1,-1,-1,-1],"loss_changes":[2.4264421E3,2.0573567E3,2.8907935E3,1.3192611E3,1.4285787E3,6.9871094E2,5.033197E1,4.522857E3,1.3510947E3,2.599736E3,1.3171035E3,6.5825195E2,0E0,0E0,0E0,5.48066E2,0E0,1.22034424E2,1.0407542E3,1.7114817E3,3.1277075E3,1.3761361E3,1.6940027E3,1.03580505E2,0E0,0E0,6.7816956E2,5.593489E1,0E0,7.694397E1,3.0586426E2,1.9603309E3,0E0,0E0,2.2455212E3,1.13183716E2,3.1673828E2,2.7336045E3,1.0735364E3,0E0,0E0,0E0,0E0,0E0,0E0,0E0,0E0,0E0,0E0,0E0,0E0,0E0,0E0,0E0,0E0,0E0,0E0,0E0,0E0,0E0,0E0],"parents":[2147483647,0,0,1,1,2,2,3,3,4,4,5,5,6,6,7,7,8,8,9,9,10,10,11,11,15,15,17,17,18,18,19,19,20,20,21,21,22,22,23,23,26,26,27,27,29,29,30,30,31,31,34,34,35,35,36,36,37,37,38,38],"right_children":[2,4,6,8,10,12,14,16,18,20,22,24,-1,-1,-1,26,-1,28,30,32,34,36,38,40,-1,-1,42,44,-1,46,48,50,-1,-1,52,54,56,58,60,-1,-1,-1,-1,-1,-1,-1,-1,-1,-1,-1,-1,-1,-1,-1,-1,-1,-1,-1,-1,-1,-1],"split_conditions":[8.550164E1,2E0,9.9516464E1,4.1694977E1,1E0,4E0,1E0,3.6859837E1,6.434347E1,3.517558E1,7.624981E0,9.1841835E1,3.9242592E-1,5.467717E0,1.1128784E0,5.5603995E0,1.0342237E1,4.850709E1,1E0,1.917826E1,5.121935E1,3.3530428E0,6.96636E1,2E0,-9.282774E0,-7.616191E0,2.962184E1,3E0,-8.103712E0,3E0,3E0,1.4572163E1,6.6468625E0,-1.0692385E1,6.487552E1,5E0,6E0,4.2958923E1,7.457238E1,3.49926E-1,-3.0883818E0,4.583134E-1,-5.167241E0,-4.3144113E-1,-3.7106245E0,-8.212973E-1,-5.165522E0,6.055836E0,-1.8918687E-1,4.2847004E0,-6.6103244E0,4.1646113E0,-4.829155E0,7.139649E-1,5.5278125E0,-6.00069E0,-1.400824E0,1.9577669E0,8.30346E0,-2.9020426E0,2.1861863E0],"split_indices":[3,0,3,3,2,1,0,3,3,3,3,3,0,0,0,3,0,3,2,3,3,3,3,0,0,0,3,1,0,1,2,3,0,0,3,0,0,3,3,0,0,0,0,0,0,0,0,0,0,0,0,0,0,0,0,0,0,0,0,0,0],"split_type":[0,0,0,0,0,0,0,0,0,0,0,0,0,0,0,0,0,0,0,0,0,0,0,0,0,0,0,0,0,0,0,0,0,0,0,0,0,0,0,0,0,0,0,0,0,0,0,0,0,0,0,0,0,0,0,0,0,0,0,0,0],"sum_hessian":[1E2,9E1,1E1,2E1,7E1,8E0,2E0,1E1,1E1,1.9E1,5.1E1,7E0,1E0,1E0,1E0,8E0,2E0,6E0,4E0,8E0,1.1E1,8E0,4.3E1,2E0,5E0,1E0,7E0,2E0,4E0,2E0,2E0,4E0,4E0,3E0,8E0,2E0,6E0,3E1,1.3E1,1E0,1E0,5E0,2E0,1E0,1E0,1E0,1E0,1E0,1E0,2E0,2E0,4E0,4E0,1E0,1E0,2E0,4E0,2.2E1,8E0,6E0,7E0],"tree_param":{"num_deleted":"0","num_feature":"4","num_nodes":"61","size_leaf_vector":"1"}},{"base_weights":[-3.785308E-1,-3.912946E0,3.6055725E0,-4.78056E0,1.2430016E1,4.611657E0,-6.5520616E0,-2.6325366E0,-1.4750835E1,4.64756E0,9.4594693E-1,8.420827E0,-9.97096E-2,-4.88622E0,1.2455162E1,-1.6872658E1,3.335621E-1,1.4750579E1,-1.5516152E0,1.1363403E1,-4.139649E0,-1.8010383E0,-1.8732618E1,8.778639E0,-3.263853E0,-6.1596584E0,-6.620558E0,7.2646847E0,7.804887E0,1.7892967E0,-5.2441106E0,4.720695E0,5.237824E-1,-1.1873383E1,4.054045E0,-3.6295128E0,1.09408675E-2,-9.277295E0,-2.3013227E0,-3.3925312E0,3.1304846E0,-2.6621544E0,2.9743654E-1,5.481086E0,-2.8788283E0,3.1191418E0,-1.7046363E0,-5.2318983E0,1.5217186E0,3.6388803E0,-1.4496957E0],"categories":[],"categories_nodes":[],"categories_segments":[],"categories_sizes":[],"default_left":[0,0,0,0,0,0,0,0,0,0,0,0,0,0,0,0,0,0,0,0,0,0,0,0,0,0,0,0,0,0,0,0,0,0,0,0,0,0,0,0,0,0,0,0,0,0,0,0,0,0,0],"id":5,"left_children":[1,3,5,7,9,11,-1,13,15,-1,-1,17,19,21,23,25,-1,27,29,31,33,35,37,-1,39,41,-1,43,-1,45,-1,-1,-1,47,49,-1,-1,-1,-1,-1,-1,-1,-1,-1,-1,-1,-1,-1,-1,-1,-1],"loss_changes":[1.4363375E3,8.251092E2,1.3295486E3,1.0748201E3,3.6364807E1,8.443203E2,0E0,1.5569863E3,3.216808E2,0E0,0E0,1.6640874E3,1.0658667E3,1.6322896E3,1.6806409E3,3.0937207E2,0E0,1.1603425E3,6.166597E2,2.2482593E2,1.1253887E3,6.2484863E2,7.067903E2,0E0,5.588075E2,8.643594E1,0E0,2.2165164E3,0E0,7.0220557E2,0E0,0E0,0E0,9.3738513E2,7.0447504E2,0E0,0E0,0E0,0E0,0E0,0E0,0E0,0E0,0E0,0E0,0E0,0E0,0E0,0E0,0E0,0E0],"parents":[2147483647,0,0,1,1,2,2,3,3,4,4,5,5,7,7,8,8,11,11,12,12,13,13,14,14,15,15,17,17,18,18,19,19,20,20,21,21,22,22,24,24,25,25,27,27,29,29,33,33,34,34],"right_children":[2,4,6,8,10,12,-1,14,16,-1,-1,18,20,22,24,26,-1,28,30,32,34,36,38,-1,40,42,-1,44,-1,46,-1,-1,-1,48,50,-1,-1,-1,-1,-1,-1,-1,-1,-1,-1,-1,-1,-1,-1,-1,-1],"split_conditions":[5E0,9.9516464E1,8.550164E1,8.269653E1,1E0,8E0,-6.5520616E0,7.920692E1,4E0,4.64756E0,9.4594693E-1,4.3209194E1,1E0,5.9590347E1,8.21052E1,2E0,3.335621E-1,2.4629536E1,4E0,1.1E1,4.129519E1,5.5603995E0,2E0,8.778639E0,1E0,1E0,-6.620558E0,1.4572163E1,7.804887E0,6.700745E1,-5.2441106E0,4.720695E0,5.237824E-1,4E0,2E0,-3.6295128E0,1.09408675E-2,-9.277295E0,-2.3013227E0,-3.3925312E0,3.1304846E0,-2.6621544E0,2.9743654E-1,5.481086E0,-2.8788283E0,3.1191418E0,-1.7046363E0,-5.2318983E0,1.5217186E0,3.6388803E0,-1.4496957E0],"split_indices":[0,3,3,3,0,0,0,3,1,0,0,3,1,3,3,0,0,3,1,0,3,3,1,0,0,1,0,3,0,3,0,0,0,1,1,0,0,0,0,0,0,0,0,0,0,0,0,0,0,0,0],"split_type":[0,0,0,0,0,0,0,0,0,0,0,0,0,0,0,0,0,0,0,0,0,0,0,0,0,0,0,0,0,0,0,0,0,0,0,0,0,0,0,0,0,0,0,0,0,0,0,0,0,0,0],"sum_hessian":[1E2,5.3E1,4.7E1,5.1E1,2E0,4.6E1,1E0,4.3E1,8E0,1E0,1E0,2.5E1,2.1E1,3.8E1,5E0,7E0,1E0,1.5E1,1E1,5E0,1.6E1,3.2E1,6E0,2E0,3E0,3E0,4E0,1E1,5E0,9E0,1E0,3E0,2E0,8E0,8E0,4E0,2.8E1,2E0,4E0,2E0,1E0,2E0,1E0,6E0,4E0,4E0,5E0,6E0,2E0,4E0,4E0],"tree_param":{"num_deleted":"0","num_feature":"4","num_nodes":"51","size_leaf_vector":"1"}},{"base_weights":[-3.2427663E-1,3.7894258E0,-2.7617207E0,-6.7864604E0,7.808902E0,-9.221963E0,-4.1618243E-1,3.3518503E0,-1.2018841E1,3.7793782E0,1.3692767E1,-1.2882792E0,-1.6130983E1,-6.66632E0,2.3534718E0,-1.8777357E1,-2.856556E0,9.304658E0,-1.2447279E1,-4.4996265E-1,1.7235563E1,-1.2993437E1,1.0674535E1,-8.027358E0,-6.357904E0,-2.2652647E-1,-1.3993723E1,6.7183003E0,1.0675569E0,-1.4120235E0,-7.9766555E0,4.6827602E0,-1.1375295E1,1.953907E0,1.3171307E1,-7.420763E0,3.9904099E0,6.662455E0,5.467741E0,6.044783E0,-7.894931E0,7.8705066E-1,4.5502167E0,6.703701E0,-1.6567753E1,-1.3786601E1,5.617295E0,-7.386717E0,-4.8177795E0,-1.2075034E0,8.328058E0,-3.9761999E0,-8.608773E-1,3.3758714E0,-1.6526453E0,4.401443E0,1.7549287E-1,-1.15799E0,2.9536743E0,3.3258486E0,-1.7081281E0,-1.8922292E-1,-6.118296E0,-8.0476004E-1,-5.3992105E0,6.36262E0,-1.5482005E-1,1.1778036E0,-5.968942E0,-2.3710885E0,1.0414655E0,4.9671297E0,8.476586E-1],"categories":[],"categories_nodes":[],"categories_segments":[],"categories_sizes":[],"default_left":[0,0,0,0,0,0,0,0,0,0,0,0,0,0,0,0,0,0,0,0,0,0,0,0,0,0,0,0,0,0,0,0,0,0,0,0,0,0,0,0,0,0,0,0,0,0,0,0,0,0,0,0,0,0,0,0,0,0,0,0,0,0,0,0,0,0,0,0,0,0,0,0,0],"id":6,"left_children":[1,3,5,7,9,11,13,-1,15,17,19,21,23,25,27,29,31,33,35,-1,37,39,41,-1,43,45,47,-1,49,-1,-1,-1,51,53,55,-1,57,-1,59,-1,-1,-1,-1,-1,61,63,65,-1,67,69,71,-1,-1,-1,-1,-1,-1,-1,-1,-1,-1,-1,-1,-1,-1,-1,-1,-1,-1,-1,-1,-1,-1],"loss_changes":[1.02318427E3,1.6683564E3,9.659377E2,1.1679529E3,6.121067E2,9.1105676E2,8.466036E2,0E0,5.036725E2,1.7296404E3,6.179199E2,1.3989385E3,7.645913E2,7.046346E2,8.523014E2,4.244154E2,9.64084E2,3.7218335E2,1.108687E3,0E0,4.0522363E2,2.7380586E3,1.4106897E2,0E0,2.1285723E3,7.9062726E2,5.640709E2,0E0,5.551527E2,0E0,0E0,0E0,2.5885315E1,4.7836533E2,1.6135217E2,0E0,1.7589949E2,0E0,3.139619E2,0E0,0E0,0E0,0E0,0E0,2.9205652E2,9.199133E1,6.803406E2,0E0,7.3733856E2,8.420578E2,3.154618E2,0E0,0E0,0E0,0E0,0E0,0E0,0E0,0E0,0E0,0E0,0E0,0E0,0E0,0E0,0E0,0E0,0E0,0E0,0E0,0E0,0E0,0E0],"parents":[2147483647,0,0,1,1,2,2,3,3,4,4,5,5,6,6,8,8,9,9,10,10,11,11,12,12,13,13,14,14,15,15,16,16,17,17,18,18,20,20,21,21,22,22,24,24,25,25,26,26,28,28,32,32,33,33,34,34,36,36,38,38,44,44,45,45,46,46,48,48,49,49,50,50],"right_children":[2,4,6,8,10,12,14,-1,16,18,20,22,24,26,28,30,32,34,36,-1,38,40,42,-1,44,46,48,-1,50,-1,-1,-1,52,54,56,-1,58,-1,60,-1,-1,-1,-1,-1,62,64,66,-1,68,70,72,-1,-1,-1,-1,-1,-1,-1,-1,-1,-1,-1,-1,-1,-1,-1,-1,-1,-1,-1,-1,-1,-1],"split_conditions":[3.517558E1,7.624981E0,1E0,3.3530428E0,2.4629536E1,6.487552E1,4.8638035E1,3.3518503E0,6E0,2.0008904E1,2E0,5.121935E1,7.920692E1,3.9511234E1,4.8907116E1,3.9138708E0,7E0,1E0,8E0,-4.4996265E-1,4E0,1E0,4E0,-8.027358E0,8.21052E1,3.6859837E1,4.2837E1,6.7183003E0,8E0,-1.4120235E0,-7.9766555E0,4.6827602E0,4E0,1.4572163E1,9E0,-7.420763E0,9E0,6.662455E0,2.8797941E1,6.044783E0,-7.894931E0,7.8705066E-1,4.5502167E0,6.703701E0,8.223409E1,1E0,2E0,-7.386717E0,4.850709E1,2E0,1E1,-3.9761999E0,-8.608773E-1,3.3758714E0,-1.6526453E0,4.401443E0,1.7549287E-1,-1.15799E0,2.9536743E0,3.3258486E0,-1.7081281E0,-1.8922292E-1,-6.118296E0,-8.0476004E-1,-5.3992105E0,6.36262E0,-1.5482005E-1,1.1778036E0,-5.968942E0,-2.3710885E0,1.0414655E0,4.9671297E0,8.476586E-1],"split_indices":[3,3,2,3,3,3,3,0,0,3,0,3,3,3,3,3,0,2,0,0,1,0,0,0,3,3,3,0,0,0,0,0,1,3,0,0,0,0,3,0,0,0,0,0,3,1,0,0,3,1,0,0,0,0,0,0,0,0,0,0,0,0,0,0,0,0,0,0,0,0,0,0,0],"split_type":[0,0,0,0,0,0,0,0,0,0,0,0,0,0,0,0,0,0,0,0,0,0,0,0,0,0,0,0,0,0,0,0,0,0,0,0,0,0,0,0,0,0,0,0,0,0,0,0,0,0,0,0,0,0,0,0,0,0,0,0,0,0,0,0,0,0,0,0,0,0,0,0,0],"sum_hessian":[1E2,3.7E1,6.3E1,1E1,2.7E1,1.6E1,4.7E1,2E0,8E0,1.7E1,1E1,8E0,8E0,1.4E1,3.3E1,4E0,4E0,1.3E1,4E0,2E0,8E0,4E0,4E0,3E0,5E0,8E0,6E0,1E0,3.2E1,2E0,2E0,1E0,3E0,5E0,8E0,2E0,2E0,5E0,3E0,1E0,3E0,2E0,2E0,1E0,4E0,2E0,6E0,2E0,4E0,2.5E1,7E0,2E0,1E0,2E0,3E0,7E0,1E0,1E0,1E0,2E0,1E0,1E0,3E0,1E0,1E0,1E0,5E0,3E0,1E0,1E1,1.5E1,2E0,5E0],"tree_param":{"num_deleted":"0","num_feature":"4","num_nodes":"73","size_leaf_vector":"1"}},{"base_weights":[-2.5472102E-1,-2.2148058E0,2.9181013E0,-1.1047136E1,-1.0912776E0,5.3821507E0,-7.302858E0,-1.7431803E0,-1.7589308E1,5.108605E0,-3.2286487E0,1.0851553E1,-8.211988E-2,-5.844261E0,3.2908123E-3,6.485195E-1,-1.1296185E0,-6.3813243E0,-9.815987E-1,-3.459754E-1,9.924609E0,-4.108427E0,9.871203E0,5.75149E0,5.3268228E0,5.0517087E0,-5.206824E0,4.868109E0,-3.6481202E0,4.946822E0,-5.609334E0,1.2842761E1,7.80103E-1,-1.4287421E1,-2.9288373E0,3.7942064E0,6.478352E-1,-5.5023646E0,1.2624299E1,4.6333466E0,-1.2401254E-1,-1.10033865E1,1.0054097E1,1.6183128E0,2.6800942E0,1.2511002E-1,3.2542589E0,-1.4393921E-1,4.6809697E0,1.8029549E0,-1.4519086E0,-6.8404543E-1,-5.258939E0,5.408226E0,-1.194735E0,5.6063657E0,1.2107563E0,-1.5965415E0,2.5740936E0,-1.5790538E0,-6.8163953E0,4.201932E0,3.2241213E-1,1.7586228E0,-5.2509004E-1],"categories":[],"categories_nodes":[],"categories_segments":[],"categories_sizes":[],"default_left":[0,0,0,0,0,0,0,0,0,0,0,0,0,0,0,0,0,0,0,0,0,0,0,0,0,0,0,0,0,0,0,0,0,0,0,0,0,0,0,0,0,0,0,0,0,0,0,0,0,0,0,0,0,0,0,0,0,0,0,0,0,0,0,0,0],"id":7,"left_children":[1,3,5,7,9,11,13,15,17,19,21,23,25,-1,27,-1,-1,-1,-1,29,31,33,35,-1,37,39,41,43,-1,45,-1,47,49,51,53,-1,-1,-1,55,-1,57,59,61,63,-1,-1,-1,-1,-1,-1,-1,-1,-1,-1,-1,-1,-1,-1,-1,-1,-1,-1,-1,-1,-1],"loss_changes":[6.345821E2,6.1311707E2,1.02151794E3,3.9541522E2,7.718265E2,9.572526E2,7.118591E2,3.9726055E1,1.4125342E2,3.9747284E2,5.361286E2,6.3333545E2,4.7356232E2,0E0,4.1424304E2,0E0,0E0,0E0,0E0,8.6955365E2,2.0346173E2,4.50443E2,3.691562E1,0E0,2.1314314E3,4.860265E2,9.067772E2,5.1603424E1,0E0,1.8257893E2,0E0,2.2814569E2,1.17256195E2,1.1575763E2,9.10825E2,0E0,0E0,0E0,3.932693E2,0E0,3.6236566E2,3.5122223E2,9.1416046E1,6.744277E1,0E0,0E0,0E0,0E0,0E0,0E0,0E0,0E0,0E0,0E0,0E0,0E0,0E0,0E0,0E0,0E0,0E0,0E0,0E0,0E0,0E0],"parents":[2147483647,0,0,1,1,2,2,3,3,4,4,5,5,6,6,7,7,8,8,9,9,10,10,11,11,12,12,14,14,19,19,20,20,21,21,22,22,24,24,25,25,26,26,27,27,29,29,31,31,32,32,33,33,34,34,38,38,40,40,41,41,42,42,43,43],"right_children":[2,4,6,8,10,12,14,16,18,20,22,24,26,-1,28,-1,-1,-1,-1,30,32,34,36,-1,38,40,42,44,-1,46,-1,48,50,52,54,-1,-1,-1,56,-1,58,60,62,64,-1,-1,-1,-1,-1,-1,-1,-1,-1,-1,-1,-1,-1,-1,-1,-1,-1,-1,-1,-1,-1],"split_conditions":[6E0,8.836164E0,7.162901E1,3.9138708E0,3.517558E1,8E0,8E0,2E0,5.5603995E0,3E0,9.9516464E1,1.4572163E1,2E0,-5.844261E0,2E0,6.485195E-1,-1.1296185E0,-6.3813243E0,-9.815987E-1,3E0,4E0,3.6859837E1,1E0,5.75149E0,2.4629536E1,2E0,4.129519E1,3E0,-3.6481202E0,2E0,-5.609334E0,1.696698E1,3E0,1E0,3.7384266E1,3.7942064E0,6.478352E-1,-5.5023646E0,6.4077835E1,4.6333466E0,4E0,3.854384E1,9E0,1E1,2.6800942E0,1.2511002E-1,3.2542589E0,-1.4393921E-1,4.6809697E0,1.8029549E0,-1.4519086E0,-6.8404543E-1,-5.258939E0,5.408226E0,-1.194735E0,5.6063657E0,1.2107563E0,-1.5965415E0,2.5740936E0,-1.5790538E0,-6.8163953E0,4.201932E0,3.2241213E-1,1.7586228E0,-5.2509004E-1],"split_indices":[0,3,3,3,3,0,0,1,3,1,3,3,2,0,1,0,0,0,0,0,1,3,0,0,3,1,3,2,0,0,0,3,0,1,3,0,0,0,3,0,1,3,0,0,0,0,0,0,0,0,0,0,0,0,0,0,0,0,0,0,0,0,0,0,0],"split_type":[0,0,0,0,0,0,0,0,0,0,0,0,0,0,0,0,0,0,0,0,0,0,0,0,0,0,0,0,0,0,0,0,0,0,0,0,0,0,0,0,0,0,0,0,0,0,0,0,0,0,0,0,0,0,0,0,0,0,0,0,0,0,0,0,0],"sum_hessian":[1E2,6.2E1,3.8E1,6E0,5.6E1,3.1E1,7E0,3E0,3E0,1.4E1,4.2E1,1.5E1,1.6E1,2E0,5E0,1E0,2E0,2E0,1E0,7E0,7E0,4E1,2E0,5E0,1E1,8E0,8E0,4E0,1E0,6E0,1E0,5E0,2E0,3E0,3.7E1,1E0,1E0,2E0,8E0,2E0,6E0,6E0,2E0,3E0,1E0,4E0,2E0,1E0,4E0,1E0,1E0,1E0,2E0,1E0,3.6E1,4E0,4E0,4E0,2E0,5E0,1E0,1E0,1E0,1E0,2E0],"tree_param":{"num_deleted":"0","num_feature":"4","num_nodes":"65","size_leaf_vector":"1"}},{"base_weights":[-1.7084084E-1,6.729327E-1,-5.462357E0,-3.992996E-1,1.1445168E1,-8.470381E0,8.390523E0,7.3169905E-1,-1.0811125E1,6.487342E0,4.4479885E0,-1.0471164E1,1.0223541E0,3.2250757E0,5.5065995E-1,-5.130338E0,2.4372668E0,-5.426738E0,-5.370271E0,-6.1477494E0,3.3848386E0,-4.884914E0,-1.508043E1,1.4948297E0,-1.0347703E0,2.3297374E-1,-1.5001905E1,-1.1627008E0,6.3359003E0,-8.469915E0,5.526784E-1,1.8371202E-2,-2.7848587E0,-2.8539124E0,-2.0566802E0,-5.106578E0,-1.0971675E0,8.354027E-1,-4.175362E0,-5.9906846E-1,-5.161059E0,2.5663245E0,-1.6580166E0,-6.194719E-1,2.9398406E0,-3.657741E0,4.0466195E-1,2.0737953E-1,4.1325763E-2,-1.4165589E0,3.882187E-1],"categories":[],"categories_nodes":[],"categories_segments":[],"categories_sizes":[],"default_left":[0,0,0,0,0,0,0,0,0,0,0,0,0,0,0,0,0,0,0,0,0,0,0,0,0,0,0,0,0,0,0,0,0,0,0,0,0,0,0,0,0,0,0,0,0,0,0,0,0,0,0],"id":8,"left_children":[1,3,5,7,9,11,13,15,17,-1,19,21,23,-1,-1,25,27,-1,29,31,-1,33,35,-1,-1,37,39,41,43,45,47,-1,-1,-1,49,-1,-1,-1,-1,-1,-1,-1,-1,-1,-1,-1,-1,-1,-1,-1,-1],"loss_changes":[4.546248E2,1.0209998E3,6.54448E2,9.617471E2,4.7362585E2,2.3862E2,2.6671555E1,7.523635E2,2.1964478E2,0E0,5.0388272E2,1.838186E2,7.031471E1,0E0,0E0,9.035481E2,8.2139404E2,0E0,1.1483534E2,5.8966087E1,0E0,5.8971252E1,4.863745E1,0E0,0E0,4.720617E2,1.3743909E2,1.3618541E3,8.3494434E2,1.6264996E2,7.7286124E-2,0E0,0E0,0E0,5.076208E1,0E0,0E0,0E0,0E0,0E0,0E0,0E0,0E0,0E0,0E0,0E0,0E0,0E0,0E0,0E0,0E0],"parents":[2147483647,0,0,1,1,2,2,3,3,4,4,5,5,6,6,7,7,8,8,10,10,11,11,12,12,15,15,16,16,18,18,19,19,21,21,22,22,25,25,26,26,27,27,28,28,29,29,30,30,34,34],"right_children":[2,4,6,8,10,12,14,16,18,-1,20,22,24,-1,-1,26,28,-1,30,32,-1,34,36,-1,-1,38,40,42,44,46,48,-1,-1,-1,50,-1,-1,-1,-1,-1,-1,-1,-1,-1,-1,-1,-1,-1,-1,-1,-1],"split_conditions":[8.3357666E1,7.981309E1,9.9516464E1,7.162901E1,8.21052E1,8E0,1E0,2E0,1E0,6.487342E0,1E0,3E0,1E1,3.2250757E0,5.5065995E-1,3E0,3E0,-5.426738E0,7.457238E1,3E0,3.3848386E0,1E0,3E0,1.4948297E0,-1.0347703E0,4.850709E1,3E0,1E0,1.696698E1,7E0,1E0,1.8371202E-2,-2.7848587E0,-2.8539124E0,1E0,-5.106578E0,-1.0971675E0,8.354027E-1,-4.175362E0,-5.9906846E-1,-5.161059E0,2.5663245E0,-1.6580166E0,-6.194719E-1,2.9398406E0,-3.657741E0,4.0466195E-1,2.0737953E-1,4.1325763E-2,-1.4165589E0,3.882187E-1],"split_indices":[3,3,3,3,3,0,0,0,2,0,0,0,0,0,0,1,1,0,3,1,0,2,2,0,0,3,2,1,3,0,0,0,0,0,1,0,0,0,0,0,0,0,0,0,0,0,0,0,0,0,0],"split_type":[0,0,0,0,0,0,0,0,0,0,0,0,0,0,0,0,0,0,0,0,0,0,0,0,0,0,0,0,0,0,0,0,0,0,0,0,0,0,0,0,0,0,0,0,0,0,0,0,0,0,0],"sum_hessian":[1E2,8.7E1,1.3E1,8E1,7E0,1.1E1,2E0,7.3E1,7E0,2E0,5E0,9E0,2E0,1E0,1E0,1.6E1,5.7E1,2E0,5E0,2E0,3E0,5E0,4E0,1E0,1E0,1.1E1,5E0,3E1,2.7E1,3E0,2E0,1E0,1E0,1E0,4E0,3E0,1E0,1E1,1E0,1E0,4E0,9E0,2.1E1,8E0,1.9E1,2E0,1E0,1E0,1E0,2E0,2E0],"tree_param":{"num_deleted":"0","num_feature":"4","num_nodes":"51","size_leaf_vector":"1"}},{"base_weights":[-2.4876596E-1,-3.403045E0,8.9009136E-1,1.5193101E0,-7.4422164E0,-1.588778E0,2.7717798E0,-1.2385055E0,5.191965E0,-5.847945E0,-4.0887537E0,2.2835582E-1,-8.370755E0,3.404594E0,-3.5709624E0,-1.08013735E1,1.7542055E0,5.9491286E0,-9.211049E0,-3.2151325E0,3.655533E0,-3.0125258E0,2.4828416E-1,-1.5613174E0,4.806246E0,-3.9009488E0,-9.5966953E-1,9.718785E0,-1.4517877E0,3.1949296E0,2.1115284E0,-5.010432E0,-2.6822813E0,2.120515E0,-1.3243402E1,5.4487886E0,1.1424775E0,2.2692277E0,-4.7881813E0,6.596436E0,2.9164886E-2,-4.516983E-2,4.4186234E0,1.023794E0,-3.2090182E0,2.8061906E-1,8.459885E-1,4.904256E0,-2.9273236E0,-1.9773277E0,2.038694E0,-4.9113694E-1,-4.7207074E0,1.9845876E0,-6.0747504E-1,-3.0679977E0,-3.8127366E-1,9.235334E-1,3.9742844E0,-1.1763483E0,9.948727E-1],"categories":[],"categories_nodes":[],"categories_segments":[],"categories_sizes":[],"default_left":[0,0,0,0,0,0,0,0,0,0,0,0,0,0,0,0,0,0,0,0,0,0,0,0,0,0,0,0,0,0,0,0,0,0,0,0,0,0,0,0,0,0,0,0,0,0,0,0,0,0,0,0,0,0,0,0,0,0,0,0,0],"id":9,"left_children":[1,3,5,7,9,11,13,15,-1,-1,17,19,21,23,-1,25,27,29,31,33,35,-1,-1,37,39,-1,-1,41,43,-1,45,-1,47,49,51,-1,53,-1,55,57,59,-1,-1,-1,-1,-1,-1,-1,-1,-1,-1,-1,-1,-1,-1,-1,-1,-1,-1,-1,-1],"loss_changes":[3.6584866E2,5.4812744E2,3.5423822E2,5.8743207E2,5.264827E2,4.0859558E2,4.3984683E2,3.6237466E2,0E0,0E0,7.232186E2,3.3039203E2,1.1590381E2,2.998442E2,0E0,8.621338E0,2.6945352E2,6.770854E1,3.9532916E2,7.7718506E2,4.8964954E2,0E0,0E0,3.306828E2,2.8201984E2,0E0,0E0,1.505528E2,3.9627536E2,0E0,6.950588E-1,0E0,9.673829E2,4.5206973E2,1.1886975E2,0E0,2.387447E2,0E0,1.4003154E2,5.207888E2,1.428538E2,0E0,0E0,0E0,0E0,0E0,0E0,0E0,0E0,0E0,0E0,0E0,0E0,0E0,0E0,0E0,0E0,0E0,0E0,0E0,0E0],"parents":[2147483647,0,0,1,1,2,2,3,3,4,4,5,5,6,6,7,7,10,10,11,11,12,12,13,13,15,15,16,16,17,17,18,18,19,19,20,20,23,23,24,24,27,27,28,28,30,30,32,32,33,33,34,34,36,36,38,38,39,39,40,40],"right_children":[2,4,6,8,10,12,14,16,-1,-1,18,20,22,24,-1,26,28,30,32,34,36,-1,-1,38,40,-1,-1,42,44,-1,46,-1,48,50,52,-1,54,-1,56,58,60,-1,-1,-1,-1,-1,-1,-1,-1,-1,-1,-1,-1,-1,-1,-1,-1,-1,-1,-1,-1],"split_conditions":[1E0,4.1694977E1,4E0,3.585931E1,5.121935E1,4E0,8.550164E1,2E0,5.191965E0,-5.847945E0,6.487552E1,4.8638035E1,7.38546E1,7.960372E0,-3.5709624E0,1E0,1.4572163E1,3E0,7.920692E1,3.7384266E1,4.8907116E1,-3.0125258E0,2.4828416E-1,3.3530428E0,7.044588E1,-3.9009488E0,-9.5966953E-1,3E0,6E0,3.1949296E0,4E0,-5.010432E0,8.21052E1,2.369329E1,2E0,5.4487886E0,1E0,2.2692277E0,6E0,4.2958923E1,7.457238E1,-4.516983E-2,4.4186234E0,1.023794E0,-3.2090182E0,2.8061906E-1,8.459885E-1,4.904256E0,-2.9273236E0,-1.9773277E0,2.038694E0,-4.9113694E-1,-4.7207074E0,1.9845876E0,-6.0747504E-1,-3.0679977E0,-3.8127366E-1,9.235334E-1,3.9742844E0,-1.1763483E0,9.948727E-1],"split_indices":[2,3,0,3,3,1,3,0,0,0,3,3,3,3,0,0,3,1,3,3,3,0,0,3,3,0,0,0,0,0,0,0,3,3,2,0,0,0,0,3,3,0,0,0,0,0,0,0,0,0,0,0,0,0,0,0,0,0,0,0,0],"split_type":[0,0,0,0,0,0,0,0,0,0,0,0,0,0,0,0,0,0,0,0,0,0,0,0,0,0,0,0,0,0,0,0,0,0,0,0,0,0,0,0,0,0,0,0,0,0,0,0,0,0,0,0,0,0,0,0,0,0,0,0,0],"sum_hessian":[1E2,2.6E1,7.4E1,1.2E1,1.4E1,3.2E1,4.2E1,1.1E1,1E0,2E0,1.2E1,2.6E1,6E0,4.1E1,1E0,2E0,9E0,4E0,8E0,1.3E1,1.3E1,5E0,1E0,9E0,3.2E1,1E0,1E0,2E0,7E0,1E0,3E0,3E0,5E0,9E0,4E0,1E0,1.2E1,2E0,7E0,2.3E1,9E0,1E0,1E0,5E0,2E0,2E0,1E0,1E0,4E0,3E0,6E0,1E0,3E0,4E0,8E0,2E0,5E0,1.6E1,7E0,4E0,5E0],"tree_param":{"num_deleted":"0","num_feature":"4","num_nodes":"61","size_leaf_vector":"1"}},{"base_weights":[-2.0546201E-1,3.6788487E-1,-3.7946808E0,-4.494852E-1,8.597772E0,-6.095354E0,6.672905E0,-3.287145E0,1.4707649E0,4.28446E0,2.3312085E0,-7.376151E0,2.057546E-1,2.443625E0,5.591824E-1,-9.619246E-1,-8.5389595E0,2.278235E0,-3.6995175E0,-3.2740383E0,7.1593857E0,-8.352051E0,2.1104164E-1,1.1213746E0,-1.028785E0,-3.1063573E0,4.6897483E0,-6.2298985E0,3.073674E0,7.9600596E-1,7.0899897E0,6.599808E-1,-5.5753126E0,4.5471385E-1,-1.9280311E0,2.5828676E0,6.388562E-1,-2.662899E0,-1.075281E1,-3.462802E-2,-2.720694E0,5.013941E-1,2.4471672E0,3.7864091E0,-1.4566536E0,7.4856853E-1,-2.8675587E0,2.7809935E0,-3.2599184E-1,-2.2342302E-1,5.2041435E-1,-4.6340564E-1,-2.324251E0,-1.2709587E0,3.0869865E-1,-3.534423E0,-8.4147096E-1],"categories":[],"categories_nodes":[],"categories_segments":[],"categories_sizes":[],"default_left":[0,0,0,0,0,0,0,0,0,0,0,0,0,0,0,0,0,0,0,0,0,0,0,0,0,0,0,0,0,0,0,0,0,0,0,0,0,0,0,0,0,0,0,0,0,0,0,0,0,0,0,0,0,0,0,0,0],"id":10,"left_children":[1,3,5,7,9,11,13,15,17,-1,19,21,23,-1,-1,25,27,29,31,33,35,37,-1,-1,-1,39,41,-1,43,45,47,49,51,-1,-1,-1,-1,53,55,-1,-1,-1,-1,-1,-1,-1,-1,-1,-1,-1,-1,-1,-1,-1,-1,-1,-1],"loss_changes":[2.0924063E2,5.9582855E2,3.7782864E2,4.4620496E2,2.5164789E2,9.8362976E1,6.0611877E0,3.9476978E2,2.1299591E2,0E0,1.587557E2,8.472449E1,5.1336975E1,0E0,0E0,3.054392E2,1.4837483E3,3.0103754E2,6.092228E1,5.504354E1,3.548294E0,9.429089E1,0E0,0E0,0E0,3.1996143E2,5.9631165E1,0E0,5.155156E2,6.2206903E2,1.883226E2,5.8210306E0,3.180899E1,0E0,0E0,0E0,0E0,2.7598072E1,1.6005615E1,0E0,0E0,0E0,0E0,0E0,0E0,0E0,0E0,0E0,0E0,0E0,0E0,0E0,0E0,0E0,0E0,0E0,0E0],"parents":[2147483647,0,0,1,1,2,2,3,3,4,4,5,5,6,6,7,7,8,8,10,10,11,11,12,12,15,15,16,16,17,17,18,18,19,19,20,20,21,21,25,25,26,26,28,28,29,29,30,30,31,31,32,32,37,37,38,38],"right_children":[2,4,6,8,10,12,14,16,18,-1,20,22,24,-1,-1,26,28,30,32,34,36,38,-1,-1,-1,40,42,-1,44,46,48,50,52,-1,-1,-1,-1,54,56,-1,-1,-1,-1,-1,-1,-1,-1,-1,-1,-1,-1,-1,-1,-1,-1,-1,-1],"split_conditions":[8.3357666E1,7.981309E1,9.9516464E1,4E0,2E0,8E0,1E0,3E0,7.044588E1,4.28446E0,1E0,4E0,1E1,2.443625E0,5.591824E-1,2E0,3E0,4.399229E1,1E0,3E0,1E0,2E0,2.1104164E-1,1.1213746E0,-1.028785E0,4.850709E1,1E0,-6.2298985E0,4E0,3.9511234E1,1E1,8E0,6E0,4.5471385E-1,-1.9280311E0,2.5828676E0,6.388562E-1,1E0,3E0,-3.462802E-2,-2.720694E0,5.013941E-1,2.4471672E0,3.7864091E0,-1.4566536E0,7.4856853E-1,-2.8675587E0,2.7809935E0,-3.2599184E-1,-2.2342302E-1,5.2041435E-1,-4.6340564E-1,-2.324251E0,-1.2709587E0,3.0869865E-1,-3.534423E0,-8.4147096E-1],"split_indices":[3,3,3,0,1,0,0,0,3,0,2,1,0,0,0,0,1,3,1,1,0,0,0,0,0,3,2,0,1,3,0,0,0,0,0,0,0,1,2,0,0,0,0,0,0,0,0,0,0,0,0,0,0,0,0,0,0],"split_type":[0,0,0,0,0,0,0,0,0,0,0,0,0,0,0,0,0,0,0,0,0,0,0,0,0,0,0,0,0,0,0,0,0,0,0,0,0,0,0,0,0,0,0,0,0,0,0,0,0,0,0,0,0,0,0,0,0],"sum_hessian":[1E2,8.7E1,1.3E1,8E1,7E0,1.1E1,2E0,3.2E1,4.8E1,3E0,4E0,9E0,2E0,1E0,1E0,2.3E1,9E0,4.2E1,6E0,2E0,2E0,8E0,1E0,1E0,1E0,1.7E1,6E0,4E0,5E0,3.3E1,9E0,2E0,4E0,1E0,1E0,1E0,1E0,3E0,5E0,1.2E1,5E0,4E0,2E0,2E0,3E0,2.9E1,4E0,7E0,2E0,1E0,1E0,2E0,2E0,2E0,1E0,4E0,1E0],"tree_param":{"num_deleted":"0","num_feature":"4","num_nodes":"57","size_leaf_vector":"1"}},{"base_weights":[-1.6224246E-1,-3.7558532E0,2.7393293E-1,1.5563627E0,-1.0441785E1,4.526787E0,-4.9291176E-1,-4.8966627E0,3.5377855E0,-3.6871388E0,-4.5706102E-1,1.5015142E0,2.2012672E0,-7.1068964E0,-3.9359942E-2,-3.8563633E-1,-3.4411156E0,5.2118464E0,-3.6706219E0,-1.1906135E1,1.8135086E0,7.9004426E0,-7.2920716E-1,3.4727556E-1,-1.2859052E0,-7.3294294E-1,8.762471E0,-4.262758E0,-7.4954456E-1,-5.909603E-1,1.0268478E1,-3.9886694E0,2.500633E-1,-1.1360436E-1,-4.65053E-1,3.3129342E0,-5.401497E-2,3.818961E0,1.3152786E0,-5.7589024E-1,-5.25363E0,4.4183626E0,-9.0296224E-2],"categories":[],"categories_nodes":[],"categories_segments":[],"categories_sizes":[],"default_left":[0,0,0,0,0,0,0,0,0,0,0,0,0,0,0,0,0,0,0,0,0,0,0,0,0,0,0,0,0,0,0,0,0,0,0,0,0,0,0,0,0,0,0],"id":11,"left_children":[1,3,5,7,9,11,13,15,-1,-1,-1,17,-1,19,21,23,-1,25,-1,27,-1,29,31,-1,33,-1,35,-1,-1,-1,37,39,41,-1,-1,-1,-1,-1,-1,-1,-1,-1,-1],"loss_changes":[1.5934074E2,4.0693945E2,2.9900763E2,5.201282E2,6.370984E1,1.0802939E2,2.3370348E2,1.4384775E2,0E0,0E0,0E0,4.7151736E2,0E0,3.8756903E2,4.110776E2,7.0458016E0,0E0,2.1166792E2,0E0,5.1164E1,0E0,1.6046701E2,2.2123819E2,0E0,1.3223743E-1,0E0,1.0396182E2,0E0,0E0,0E0,1.6605713E1,4.1407043E2,4.3524533E2,0E0,0E0,0E0,0E0,0E0,0E0,0E0,0E0,0E0,0E0],"parents":[2147483647,0,0,1,1,2,2,3,3,4,4,5,5,6,6,7,7,11,11,13,13,14,14,15,15,17,17,19,19,21,21,22,22,24,24,26,26,30,30,31,31,32,32],"right_children":[2,4,6,8,10,12,14,16,-1,-1,-1,18,-1,20,22,24,-1,26,-1,28,-1,30,32,-1,34,-1,36,-1,-1,-1,38,40,42,-1,-1,-1,-1,-1,-1,-1,-1,-1,-1],"split_conditions":[7.624981E0,5.349673E0,2.0008904E1,6E0,4E0,1.5434046E1,2.4629536E1,5E0,3.5377855E0,-3.6871388E0,-4.5706102E-1,1.4572163E1,2.2012672E0,9E0,2.8981676E1,2E0,-3.4411156E0,2E0,-3.6706219E0,8E0,1.8135086E0,2E0,4.129519E1,3.4727556E-1,3E0,-7.3294294E-1,8E0,-4.262758E0,-7.4954456E-1,-5.909603E-1,1E0,3.9511234E1,4.1694977E1,-1.1360436E-1,-4.65053E-1,3.3129342E0,-5.401497E-2,3.818961E0,1.3152786E0,-5.7589024E-1,-5.25363E0,4.4183626E0,-9.0296224E-2],"split_indices":[3,3,3,0,1,3,3,0,0,0,0,3,0,0,3,1,0,0,0,0,0,0,3,0,0,0,0,0,0,0,1,3,3,0,0,0,0,0,0,0,0,0,0],"split_type":[0,0,0,0,0,0,0,0,0,0,0,0,0,0,0,0,0,0,0,0,0,0,0,0,0,0,0,0,0,0,0,0,0,0,0,0,0,0,0,0,0,0,0],"sum_hessian":[1E2,1E1,9E1,6E0,4E0,1.3E1,7.7E1,4E0,2E0,3E0,1E0,7E0,6E0,4E0,7.3E1,3E0,1E0,6E0,1E0,3E0,1E0,5E0,6.8E1,1E0,2E0,2E0,4E0,2E0,1E0,1E0,4E0,1.5E1,5.3E1,1E0,1E0,3E0,1E0,2E0,2E0,1.4E1,1E0,1E0,5.2E1],"tree_param":{"num_deleted":"0","num_feature":"4","num_nodes":"43","size_leaf_vector":"1"}},{"base_weights":[-1.4702615E-1,-2.2215157E0,6.0175043E-1,5.3357637E-1,-4.461161E0,-5.4733145E-1,2.1629333E0,-1.5084076E0,3.7556078E0,-3.750551E0,-2.2624545E0,1.7240721E0,-2.186152E0,4.244809E0,-1.2063323E0,-7.6847234E0,4.9532795E-1,4.1795897E0,-5.5899844E0,2.430191E-1,4.257454E0,-9.999257E0,6.577422E-1,5.2674403E0,-3.3059132E0,2.4980655E0,-1.0165744E1,-2.7575412E0,-7.005844E-1,2.358517E0,-2.441006E0,2.3120866E0,4.1130295E-1,-3.429781E0,-7.632411E-1,2.0263045E0,-6.5050554E0,-4.427745E0,-1.3070955E1,7.5020905E0,-9.913834E-1,3.5091732E0,2.74113E0,-1.3373222E0,-1.5033875E-1,-2.5852714E0,6.3178353E0,-6.91626E-1,-3.6052139E0,-3.2197917E-1,1.5955784E0,2.6263642E0,-2.3132317E0,-4.1305372E-1,1.3344162E0,-8.362E-1,-2.6487334E0,2.5309375E-1,-3.0362875E0,-8.790745E-1,-4.6423326E0,3.2362716E0,-3.5315323E-1,1.4966083E-1,-1.4003291E0,-1.739422E-1,2.304295E0,3.7149888E-1,-1.6641346E0,2.4298217E0,-3.8850176E-1],"categories":[],"categories_nodes":[],"categories_segments":[],"categories_sizes":[],"default_left":[0,0,0,0,0,0,0,0,0,0,0,0,0,0,0,0,0,0,0,0,0,0,0,0,0,0,0,0,0,0,0,0,0,0,0,0,0,0,0,0,0,0,0,0,0,0,0,0,0,0,0,0,0,0,0,0,0,0,0,0,0,0,0,0,0,0,0,0,0,0,0],"id":12,"left_children":[1,3,5,7,9,11,13,15,-1,-1,17,19,21,23,25,27,29,31,33,35,-1,37,39,41,43,45,47,-1,-1,49,-1,-1,-1,-1,51,53,55,57,59,61,63,65,-1,-1,-1,67,69,-1,-1,-1,-1,-1,-1,-1,-1,-1,-1,-1,-1,-1,-1,-1,-1,-1,-1,-1,-1,-1,-1,-1,-1],"loss_changes":[1.5822305E2,1.6898196E2,1.3572836E2,3.370377E2,2.3690146E2,1.675557E2,2.295812E2,1.523149E2,0E0,0E0,3.0203308E2,3.4738507E2,5.8428766E2,1.7184576E2,4.568546E2,2.7206573E0,1.8002126E2,3.8968124E1,2.4508154E2,2.2978857E2,0E0,6.1923096E1,2.3318124E2,9.0406494E1,7.4579773E0,2.105051E2,3.0512695E1,0E0,0E0,9.7133286E1,0E0,0E0,0E0,0E0,4.642551E2,1.2974796E2,9.951096E0,1.285831E2,5.2148315E1,1.26761185E2,9.5467125E1,2.4327177E2,0E0,0E0,0E0,6.34937E1,9.1865585E1,0E0,0E0,0E0,0E0,0E0,0E0,0E0,0E0,0E0,0E0,0E0,0E0,0E0,0E0,0E0,0E0,0E0,0E0,0E0,0E0,0E0,0E0,0E0,0E0],"parents":[2147483647,0,0,1,1,2,2,3,3,4,4,5,5,6,6,7,7,10,10,11,11,12,12,13,13,14,14,15,15,16,16,17,17,18,18,19,19,21,21,22,22,23,23,24,24,25,25,26,26,29,29,34,34,35,35,36,36,37,37,38,38,39,39,40,40,41,41,45,45,46,46],"right_children":[2,4,6,8,10,12,14,16,-1,-1,18,20,22,24,26,28,30,32,34,36,-1,38,40,42,44,46,48,-1,-1,50,-1,-1,-1,-1,52,54,56,58,60,62,64,66,-1,-1,-1,68,70,-1,-1,-1,-1,-1,-1,-1,-1,-1,-1,-1,-1,-1,-1,-1,-1,-1,-1,-1,-1,-1,-1,-1,-1],"split_conditions":[1E0,4.1694977E1,3E0,3.585931E1,5.121935E1,3.7384266E1,4E0,2E0,3.7556078E0,-3.750551E0,6.487552E1,3.6779945E1,5.974218E1,8E0,3E0,1E0,3.517558E1,3E0,7.920692E1,3E0,4.257454E0,3E0,6.96636E1,6E0,9E0,4E0,1E0,-2.7575412E0,-7.005844E-1,1.917826E1,-2.441006E0,2.3120866E0,4.1130295E-1,-3.429781E0,8.223409E1,1.1696565E1,2E0,5.767064E1,1E0,9E0,9.1841835E1,4.8638035E1,2.74113E0,-1.3373222E0,-1.5033875E-1,3E0,9E0,-6.91626E-1,-3.6052139E0,-3.2197917E-1,1.5955784E0,2.6263642E0,-2.3132317E0,-4.1305372E-1,1.3344162E0,-8.362E-1,-2.6487334E0,2.5309375E-1,-3.0362875E0,-8.790745E-1,-4.6423326E0,3.2362716E0,-3.5315323E-1,1.4966083E-1,-1.4003291E0,-1.739422E-1,2.304295E0,3.7149888E-1,-1.6641346E0,2.4298217E0,-3.8850176E-1],"split_indices":[2,3,1,3,3,3,1,0,0,0,3,3,3,0,2,0,3,1,3,2,0,0,3,0,0,0,0,0,0,3,0,0,0,0,3,3,0,3,1,0,3,3,0,0,0,0,0,0,0,0,0,0,0,0,0,0,0,0,0,0,0,0,0,0,0,0,0,0,0,0,0],"split_type":[0,0,0,0,0,0,0,0,0,0,0,0,0,0,0,0,0,0,0,0,0,0,0,0,0,0,0,0,0,0,0,0,0,0,0,0,0,0,0,0,0,0,0,0,0,0,0,0,0,0,0,0,0,0,0,0,0,0,0,0,0,0,0,0,0,0,0,0,0,0,0],"sum_hessian":[1E2,2.6E1,7.4E1,1.2E1,1.4E1,4.3E1,3.1E1,1.1E1,1E0,2E0,1.2E1,1.8E1,2.5E1,1.9E1,1.2E1,2E0,9E0,4E0,8E0,1.7E1,1E0,6E0,1.9E1,1.7E1,2E0,9E0,3E0,1E0,1E0,8E0,1E0,1E0,3E0,3E0,5E0,1.4E1,3E0,3E0,3E0,3E0,1.6E1,1.3E1,4E0,1E0,1E0,4E0,5E0,1E0,2E0,4E0,4E0,2E0,3E0,6E0,8E0,2E0,1E0,2E0,1E0,1E0,2E0,2E0,1E0,1.2E1,4E0,7E0,6E0,2E0,2E0,4E0,1E0],"tree_param":{"num_deleted":"0","num_feature":"4","num_nodes":"71","size_leaf_vector":"1"}},{"base_weights":[-2.0347644E-1,-3.721583E-1,1.6292549E0,1.4597215E-1,-4.140768E0,-4.212288E-1,5.870635E0,-5.0095177E0,1.3532002E-1,-5.993429E-3,-5.610672E0,3.1213486E0,1.0694199E0,-1.9814488E0,-2.2923894E0,9.442658E-1,-8.833718E-1,-2.3481703E0,6.5772325E-1,-4.5412447E-2,-6.6722565E0,-1.7687893E0,1.8633386E0,2.5348893E-1,-2.7157238E0,-2.5125723E-2,-2.3298068E0,-2.6000044E-1,6.9513905E-1,-2.4753475E0,-5.34977E-2,-8.481339E-1,2.109272E-1,-1.0869987E0,1.3720436E-1],"categories":[],"categories_nodes":[],"categories_segments":[],"categories_sizes":[],"default_left":[0,0,0,0,0,0,0,0,0,0,0,0,0,0,0,0,0,0,0,0,0,0,0,0,0,0,0,0,0,0,0,0,0,0,0],"id":13,"left_children":[1,3,-1,5,7,9,11,13,15,17,19,-1,21,23,-1,-1,-1,25,27,-1,29,31,-1,-1,33,-1,-1,-1,-1,-1,-1,-1,-1,-1,-1],"loss_changes":[9.801239E1,1.9391495E2,0E0,2.8821188E2,4.525609E1,1.7450842E2,1.6301755E2,6.4551254E1,3.710025E1,1.1968963E2,3.3763016E1,0E0,8.39524E1,1.4746866E1,0E0,0E0,0E0,2.079104E2,1.537833E2,0E0,4.9795E1,1.2451911E1,0E0,0E0,1.6056599E1,0E0,0E0,0E0,0E0,0E0,0E0,0E0,0E0,0E0,0E0],"parents":[2147483647,0,0,1,1,3,3,4,4,5,5,6,6,7,7,8,8,9,9,10,10,12,12,13,13,17,17,18,18,20,20,21,21,24,24],"right_children":[2,4,-1,6,8,10,12,14,16,18,20,-1,22,24,-1,-1,-1,26,28,-1,30,32,-1,-1,34,-1,-1,-1,-1,-1,-1,-1,-1,-1,-1],"split_conditions":[9.9516464E1,8.3357666E1,1.6292549E0,7.981309E1,8E0,7.226598E1,2E0,3E0,1E1,2E0,1E0,3.1213486E0,2E0,9.1841835E1,-2.2923894E0,9.442658E-1,-8.833718E-1,4.850709E1,3E0,-4.5412447E-2,7.920692E1,1E0,1.8633386E0,2.5348893E-1,4E0,-2.5125723E-2,-2.3298068E0,-2.6000044E-1,6.9513905E-1,-2.4753475E0,-5.34977E-2,-8.481339E-1,2.109272E-1,-1.0869987E0,1.3720436E-1],"split_indices":[3,3,0,3,0,3,1,0,0,0,0,0,2,3,0,0,0,3,1,0,3,0,0,0,1,0,0,0,0,0,0,0,0,0,0],"split_type":[0,0,0,0,0,0,0,0,0,0,0,0,0,0,0,0,0,0,0,0,0,0,0,0,0,0,0,0,0,0,0,0,0,0,0],"sum_hessian":[1E2,9.8E1,2E0,8.7E1,1.1E1,8E1,7E0,9E0,2E0,7.5E1,5E0,3E0,4E0,5E0,4E0,1E0,1E0,1.6E1,5.9E1,1E0,4E0,3E0,1E0,1E0,4E0,1.2E1,4E0,3.1E1,2.8E1,3E0,1E0,2E0,1E0,3E0,1E0],"tree_param":{"num_deleted":"0","num_feature":"4","num_nodes":"35","size_leaf_vector":"1"}},{"base_weights":[-1.5674306E-1,-1.72858E0,4.1120812E-1,1.9849175E-1,-3.2834702E0,-6.7317975E-1,1.7386518E0,-1.5605422E0,3.1960351E0,-3.0439546E0,-1.4471159E0,6.351688E-1,-3.9969819E0,9.8131075E0,3.3495408E-1,-6.515265E0,8.192883E-2,3.1053054E0,-3.8154483E0,-1.4868262E-1,3.6226068E0,-8.845246E0,-4.671936E-1,9.5831305E-1,3.9482408E0,-2.2313733E0,8.594636E-1,-2.3401413E0,-5.917282E-1,7.165853E0,-2.5847838E0,2.0042725E0,5.4117775E-1,-8.350215E0,-1.563623E-1,-2.5845268E0,2.4594634E0,-4.329243E-1,-1.0335018E1,-6.2986984E0,4.291449E0,4.6223445E0,-1.17067575E-1,-9.267426E-3,3.2339013E0,-3.1760025E0,2.1217674E-2,-1.0708237E-2,2.2360992E-1,-2.8314543E0,-7.6294786E-1,2.6773386E0,-1.1272259E0,-1.5432586E-1,-2.599873E0,3.8730463E-1,2.8226602E0,-7.082131E-1,-3.6618652E0,-7.762032E-1,-2.6149144E0,1.7253228E0,-2.3205872E-1,2.6410172E0,9.929209E-2,9.5232457E-1,-5.88363E-1],"categories":[],"categories_nodes":[],"categories_segments":[],"categories_sizes":[],"default_left":[0,0,0,0,0,0,0,0,0,0,0,0,0,0,0,0,0,0,0,0,0,0,0,0,0,0,0,0,0,0,0,0,0,0,0,0,0,0,0,0,0,0,0,0,0,0,0,0,0,0,0,0,0,0,0,0,0,0,0,0,0,0,0,0,0,0,0],"id":14,"left_children":[1,3,5,7,9,11,13,15,-1,-1,17,19,21,23,25,27,29,31,33,35,-1,37,39,-1,-1,-1,41,-1,-1,43,45,-1,47,49,51,53,55,-1,57,59,61,63,65,-1,-1,-1,-1,-1,-1,-1,-1,-1,-1,-1,-1,-1,-1,-1,-1,-1,-1,-1,-1,-1,-1,-1,-1],"loss_changes":[9.087619E1,8.155414E1,1.091302E2,2.557033E2,1.7436153E2,1.851838E2,3.8207224E2,9.818966E1,0E0,0E0,1.5200955E2,2.79785E2,2.012277E2,6.874695E1,1.2870087E2,2.1295776E0,2.0743007E2,4.222595E1,1.4803227E2,1.9694765E2,0E0,4.022342E1,2.4903093E2,0E0,0E0,0E0,1.0710366E2,0E0,0E0,7.835617E1,1.7074153E2,0E0,4.9776793E-1,1.2687073E0,2.2973633E2,1.9697879E2,1.0965326E2,0E0,3.0870728E1,1.3339218E1,4.1413513E1,1.04740814E2,1.519048E2,0E0,0E0,0E0,0E0,0E0,0E0,0E0,0E0,0E0,0E0,0E0,0E0,0E0,0E0,0E0,0E0,0E0,0E0,0E0,0E0,0E0,0E0,0E0,0E0],"parents":[2147483647,0,0,1,1,2,2,3,3,4,4,5,5,6,6,7,7,10,10,11,11,12,12,13,13,14,14,15,15,16,16,17,17,18,18,19,19,21,21,22,22,26,26,29,29,30,30,32,32,33,33,34,34,35,35,36,36,38,38,39,39,40,40,41,41,42,42],"right_children":[2,4,6,8,10,12,14,16,-1,-1,18,20,22,24,26,28,30,32,34,36,-1,38,40,-1,-1,-1,42,-1,-1,44,46,-1,48,50,52,54,56,-1,58,60,62,64,66,-1,-1,-1,-1,-1,-1,-1,-1,-1,-1,-1,-1,-1,-1,-1,-1,-1,-1,-1,-1,-1,-1,-1,-1],"split_conditions":[1E0,4.1694977E1,4.8638035E1,3.585931E1,5.121935E1,3.7384266E1,5.9590347E1,2E0,3.1960351E0,-3.0439546E0,6.487552E1,3.6859837E1,3E0,3E0,5.974218E1,1E0,1.4572163E1,3E0,7.920692E1,6E0,3.6226068E0,2E0,5E0,9.5831305E-1,3.9482408E0,-2.2313733E0,6.96636E1,-2.3401413E0,-5.917282E-1,3E0,1.5434046E1,2.0042725E0,3E0,7E0,8.21052E1,4E0,2.5230951E1,-4.329243E-1,1E0,4.2837E1,8E0,2E0,3E0,-9.267426E-3,3.2339013E0,-3.1760025E0,2.1217674E-2,-1.0708237E-2,2.2360992E-1,-2.8314543E0,-7.6294786E-1,2.6773386E0,-1.1272259E0,-1.5432586E-1,-2.599873E0,3.8730463E-1,2.8226602E0,-7.082131E-1,-3.6618652E0,-7.762032E-1,-2.6149144E0,1.7253228E0,-2.3205872E-1,2.6410172E0,9.929209E-2,9.5232457E-1,-5.88363E-1],"split_indices":[2,3,3,3,3,3,3,0,0,0,3,3,1,0,3,0,3,1,3,0,0,0,0,0,0,0,3,0,0,0,3,0,0,0,3,1,3,0,1,3,0,1,0,0,0,0,0,0,0,0,0,0,0,0,0,0,0,0,0,0,0,0,0,0,0,0,0],"split_type":[0,0,0,0,0,0,0,0,0,0,0,0,0,0,0,0,0,0,0,0,0,0,0,0,0,0,0,0,0,0,0,0,0,0,0,0,0,0,0,0,0,0,0,0,0,0,0,0,0,0,0,0,0,0,0,0,0,0,0,0,0,0,0,0,0,0,0],"sum_hessian":[1E2,2.6E1,7.4E1,1.2E1,1.4E1,4.1E1,3.3E1,1.1E1,1E0,2E0,1.2E1,3E1,1.1E1,4E0,2.9E1,2E0,9E0,4E0,8E0,2.9E1,1E0,4E0,7E0,2E0,2E0,1E0,2.8E1,1E0,1E0,2E0,7E0,1E0,3E0,3E0,5E0,1.5E1,1.4E1,1E0,3E0,3E0,4E0,5E0,2.3E1,1E0,1E0,1E0,6E0,1E0,2E0,2E0,1E0,1E0,4E0,1.2E1,3E0,1.3E1,1E0,1E0,2E0,2E0,1E0,3E0,1E0,2E0,3E0,8E0,1.5E1],"tree_param":{"num_deleted":"0","num_feature":"4","num_nodes":"67","size_leaf_vector":"1"}},{"base_weights":[-1.03582546E-1,-2.5564241E0,1.9405307E-1,1.0857544E0,-7.1441894E0,2.816973E0,-2.7921528E-1,-2.610971E0,2.0655138E0,-2.4327748E0,-4.9259263E-1,7.979915E-1,4.7219553E0,-5.8790073E0,1.0292222E-1,2.3371315E-1,-2.0984564E0,3.4830399E0,-2.6996021E0,2.559183E0,2.6654117E0,-9.552467E0,1.3222252E0,4.683235E0,-2.9685748E-1,4.192921E-1,-6.2014264E-1,1.0093066E0,2.748816E0,-6.044903E-1,1.8410431E0,-3.2500727E0,-8.563717E-1,2.5734527E0,5.9122086E-1,-2.552175E0,3.7688217E-1,-7.876969E-3,-2.7118722E-1,-3.9536133E-1,7.50709E-1,9.536179E-1,-8.7754136E-1,-3.499695E-1,4.6980134E-1,-3.9256868E-1,-3.1809556E0,2.7166307E0,1.26835825E-2],"categories":[],"categories_nodes":[],"categories_segments":[],"categories_sizes":[],"default_left":[0,0,0,0,0,0,0,0,0,0,0,0,0,0,0,0,0,0,0,0,0,0,0,0,0,0,0,0,0,0,0,0,0,0,0,0,0,0,0,0,0,0,0,0,0,0,0,0,0],"id":15,"left_children":[1,3,5,7,9,11,13,15,-1,-1,-1,17,19,21,23,25,-1,27,-1,-1,29,31,-1,33,35,-1,37,39,-1,41,-1,-1,-1,-1,43,45,47,-1,-1,-1,-1,-1,-1,-1,-1,-1,-1,-1,-1],"loss_changes":[7.4231445E1,1.9156088E2,1.1374893E2,1.6804535E2,1.3234634E1,5.0077652E1,1.6751654E2,6.3988605E1,0E0,0E0,0E0,2.4177887E2,3.2091064E1,2.3103555E2,1.3689285E2,4.8420396E0,0E0,8.910209E1,0E0,0E0,7.181644E1,3.3976746E0,0E0,9.055733E1,1.0580715E2,0E0,4.8192596E-1,2.4145441E1,0E0,4.441626E1,0E0,0E0,0E0,0E0,8.680689E0,1.4632251E2,1.5642639E2,0E0,0E0,0E0,0E0,0E0,0E0,0E0,0E0,0E0,0E0,0E0,0E0],"parents":[2147483647,0,0,1,1,2,2,3,3,4,4,5,5,6,6,7,7,11,11,12,12,13,13,14,14,15,15,17,17,20,20,21,21,23,23,24,24,26,26,27,27,29,29,34,34,35,35,36,36],"right_children":[2,4,6,8,10,12,14,16,-1,-1,-1,18,20,22,24,26,-1,28,-1,-1,30,32,-1,34,36,-1,38,40,-1,42,-1,-1,-1,-1,44,46,48,-1,-1,-1,-1,-1,-1,-1,-1,-1,-1,-1,-1],"split_conditions":[7.624981E0,5.349673E0,2.0008904E1,6E0,4E0,1.5434046E1,2.4629536E1,5E0,2.0655138E0,-2.4327748E0,-4.9259263E-1,1.4572163E1,1E0,9E0,2.8981676E1,2E0,-2.0984564E0,1.1696565E1,-2.6996021E0,2.559183E0,1.917826E1,8E0,1.3222252E0,1E0,4.129519E1,4.192921E-1,3E0,2E0,2.748816E0,2E0,1.8410431E0,-3.2500727E0,-8.563717E-1,2.5734527E0,2E0,3.9511234E1,4.1694977E1,-7.876969E-3,-2.7118722E-1,-3.9536133E-1,7.50709E-1,9.536179E-1,-8.7754136E-1,-3.499695E-1,4.6980134E-1,-3.9256868E-1,-3.1809556E0,2.7166307E0,1.26835825E-2],"split_indices":[3,3,3,0,1,3,3,0,0,0,0,3,1,0,3,1,0,3,0,0,3,0,0,1,3,0,0,0,0,0,0,0,0,0,0,3,3,0,0,0,0,0,0,0,0,0,0,0,0],"split_type":[0,0,0,0,0,0,0,0,0,0,0,0,0,0,0,0,0,0,0,0,0,0,0,0,0,0,0,0,0,0,0,0,0,0,0,0,0,0,0,0,0,0,0,0,0,0,0,0,0],"sum_hessian":[1E2,1E1,9E1,6E0,4E0,1.3E1,7.7E1,4E0,2E0,3E0,1E0,7E0,6E0,4E0,7.3E1,3E0,1E0,6E0,1E0,1E0,5E0,3E0,1E0,5E0,6.8E1,1E0,2E0,5E0,1E0,3E0,2E0,2E0,1E0,2E0,3E0,1.5E1,5.3E1,1E0,1E0,2E0,3E0,1E0,2E0,1E0,2E0,1.4E1,1E0,1E0,5.2E1],"tree_param":{"num_deleted":"0","num_feature":"4","num_nodes":"49","size_leaf_vector":"1"}},{"base_weights":[-6.1342157E-2,-1.3174168E0,3.916626E-1,1.5037009E-1,-2.501671E0,-4.1348073E-1,1.374732E0,-1.1199526E0,2.3091364E0,-2.4377E0,-1.0113896E0,5.7512736E-1,-2.9329283E0,7.840341E0,2.5130603E-1,-2.1674417E-2,-1.9801518E0,3.277092E0,-2.6256433E0,-1.03057384E-1,3.1381006E0,-6.3615904E0,-4.233985E-1,7.641144E-1,3.1560564E0,-1.8985701E0,6.964246E-1,-2.4304287E0,3.3549163E0,1.7017297E0,1.763504E-1,-5.417282E0,1.3832974E-1,4.9072194E-1,-1.6831937E0,-3.6988795E-1,-7.335508E0,-5.1650686E0,3.4546173E0,1.9023023E0,-1.1704272E0,1.04771234E-1,-1.8759189E0,1.6782227E-1,1.509636E0,-1.1003494E-2,-2.025979E0,1.7162224E0,-1.2249184E0,9.831559E-1,-7.725525E-2,-5.430954E-1,-2.5721395E0,-5.8297426E-1,-2.2245798E0,1.3950577E0,-1.9915238E-1,1.8987678E-1,1.5228314E0,-8.00695E-1,1.2644708E0],"categories":[],"categories_nodes":[],"categories_segments":[],"categories_sizes":[],"default_left":[0,0,0,0,0,0,0,0,0,0,0,0,0,0,0,0,0,0,0,0,0,0,0,0,0,0,0,0,0,0,0,0,0,0,0,0,0,0,0,0,0,0,0,0,0,0,0,0,0,0,0,0,0,0,0,0,0,0,0,0,0],"id":16,"left_children":[1,3,5,7,9,11,13,15,-1,-1,17,19,21,23,25,27,-1,29,31,33,-1,35,37,-1,-1,-1,39,41,43,-1,-1,45,47,49,-1,-1,51,53,55,57,59,-1,-1,-1,-1,-1,-1,-1,-1,-1,-1,-1,-1,-1,-1,-1,-1,-1,-1,-1,-1],"loss_changes":[5.7985767E1,4.7308464E1,5.9931805E1,1.3324892E2,1.17501816E2,1.0629814E2,2.4499323E2,7.2087E1,0E0,0E0,9.859954E1,2.089019E2,1.00558464E2,4.4130646E1,9.227208E1,9.762104E1,0E0,2.243229E1,7.790952E1,1.00862015E2,0E0,1.5929932E1,1.6494951E2,0E0,0E0,0E0,6.7511154E1,7.6563324E1,2.0628181E1,0E0,0E0,3.569423E1,1.647514E2,5.9222317E1,0E0,0E0,1.1845871E1,1.4589241E1,2.770662E1,6.930491E1,1.08092125E2,0E0,0E0,0E0,0E0,0E0,0E0,0E0,0E0,0E0,0E0,0E0,0E0,0E0,0E0,0E0,0E0,0E0,0E0,0E0,0E0],"parents":[2147483647,0,0,1,1,2,2,3,3,4,4,5,5,6,6,7,7,10,10,11,11,12,12,13,13,14,14,15,15,17,17,18,18,19,19,21,21,22,22,26,26,27,27,28,28,31,31,32,32,33,33,36,36,37,37,38,38,39,39,40,40],"right_children":[2,4,6,8,10,12,14,16,-1,-1,18,20,22,24,26,28,-1,30,32,34,-1,36,38,-1,-1,-1,40,42,44,-1,-1,46,48,50,-1,-1,52,54,56,58,60,-1,-1,-1,-1,-1,-1,-1,-1,-1,-1,-1,-1,-1,-1,-1,-1,-1,-1,-1,-1],"split_conditions":[1E0,4.1694977E1,4.8638035E1,3.585931E1,5.121935E1,3.7384266E1,5.9590347E1,3.517558E1,2.3091364E0,-2.4377E0,6.4077835E1,3.6859837E1,3E0,3E0,5.974218E1,1.917826E1,-1.9801518E0,3E0,7.920692E1,3.318115E1,3.1381006E0,2E0,5E0,7.641144E-1,3.1560564E0,-1.8985701E0,8.3357666E1,1.4572163E1,3E0,1.7017297E0,1.763504E-1,3E0,8.223409E1,1E0,-1.6831937E0,-3.6988795E-1,1E0,4.2837E1,8E0,7.981309E1,9.9516464E1,1.04771234E-1,-1.8759189E0,1.6782227E-1,1.509636E0,-1.1003494E-2,-2.025979E0,1.7162224E0,-1.2249184E0,9.831559E-1,-7.725525E-2,-5.430954E-1,-2.5721395E0,-5.8297426E-1,-2.2245798E0,1.3950577E0,-1.9915238E-1,1.8987678E-1,1.5228314E0,-8.00695E-1,1.2644708E0],"split_indices":[2,3,3,3,3,3,3,3,0,0,3,3,1,0,3,3,0,1,3,3,0,0,0,0,0,0,3,3,0,0,0,0,3,1,0,0,1,3,0,3,3,0,0,0,0,0,0,0,0,0,0,0,0,0,0,0,0,0,0,0,0],"split_type":[0,0,0,0,0,0,0,0,0,0,0,0,0,0,0,0,0,0,0,0,0,0,0,0,0,0,0,0,0,0,0,0,0,0,0,0,0,0,0,0,0,0,0,0,0,0,0,0,0,0,0,0,0,0,0,0,0,0,0,0,0],"sum_hessian":[1E2,2.6E1,7.4E1,1.2E1,1.4E1,4.1E1,3.3E1,1.1E1,1E0,2E0,1.2E1,3E1,1.1E1,4E0,2.9E1,1E1,1E0,3E0,9E0,2.9E1,1E0,4E0,7E0,2E0,2E0,1E0,2.8E1,6E0,4E0,1E0,2E0,4E0,5E0,2.7E1,2E0,1E0,3E0,3E0,4E0,1.7E1,1.1E1,4E0,2E0,2E0,2E0,1E0,3E0,2E0,3E0,5E0,2.2E1,1E0,2E0,2E0,1E0,3E0,1E0,1.3E1,4E0,9E0,2E0],"tree_param":{"num_deleted":"0","num_feature":"4","num_nodes":"61","size_leaf_vector":"1"}},{"base_weights":[-4.6977945E-2,-1.9873551E0,2.1226098E-1,8.15567E-1,-4.926205E0,2.6747139E0,-2.0086913E-1,2.920494E0,-1.7720994E0,-5.560607E0,-2.6312944E-1,4.0797625E0,3.555301E-1,-4.8224254E0,1.1411263E-1,2.1109009E-1,1.6678604E0,-1.8816699E0,-4.0711558E-1,-6.2051773E-2,6.5772614E0,-2.790691E0,1.3295945E0,-7.920499E0,1.1354805E0,3.397208E0,-1.7302772E-1,3.6798707E-1,-5.362956E-1,-1.0634689E0,4.4133E-1,2.5853875E0,-2.3782884E-1,-5.6344852E0,8.6110383E-1,-2.6906476E0,-7.163281E-1,1.8621308E0,4.40485E-1,-2.4018965E0,1.586583E-1,-2.241211E-2,-2.189209E-1,-1.9179154E-2,-4.5938188E-1,-5.222443E-1,-2.0132742E0,-2.8588602E-1,3.667847E-1,1.5346679E-1,-1.8514805E0,2.6673844E0,-4.052203E-2],"categories":[],"categories_nodes":[],"categories_segments":[],"categories_sizes":[],"default_left":[0,0,0,0,0,0,0,0,0,0,0,0,0,0,0,0,0,0,0,0,0,0,0,0,0,0,0,0,0,0,0,0,0,0,0,0,0,0,0,0,0,0,0,0,0,0,0,0,0,0,0,0,0],"id":17,"left_children":[1,3,5,7,9,11,13,15,-1,17,-1,19,21,23,25,27,-1,-1,-1,29,31,33,-1,35,-1,37,39,-1,41,43,-1,-1,-1,45,-1,-1,-1,-1,47,49,51,-1,-1,-1,-1,-1,-1,-1,-1,-1,-1,-1,-1],"loss_changes":[5.1226986E1,1.0286606E2,9.209548E1,1.1630491E2,1.053537E1,4.091088E1,1.1409536E2,4.1727802E1,0E0,6.445053E0,0E0,8.316153E1,8.932079E1,1.6330975E2,7.034829E1,3.6938133E0,0E0,0E0,0E0,7.705766E0,8.203194E1,8.056822E1,0E0,1.7850494E0,0E0,4.7114334E1,5.139172E1,0E0,2.133537E-1,1.3048692E0,0E0,0E0,0E0,8.913193E-1,0E0,0E0,0E0,0E0,5.5244985E0,1.0200282E2,1.5766893E2,0E0,0E0,0E0,0E0,0E0,0E0,0E0,0E0,0E0,0E0,0E0,0E0],"parents":[2147483647,0,0,1,1,2,2,3,3,4,4,5,5,6,6,7,7,9,9,11,11,12,12,13,13,14,14,15,15,19,19,20,20,21,21,23,23,25,25,26,26,28,28,29,29,33,33,38,38,39,39,40,40],"right_children":[2,4,6,8,10,12,14,16,-1,18,-1,20,22,24,26,28,-1,-1,-1,30,32,34,-1,36,-1,38,40,-1,42,44,-1,-1,-1,46,-1,-1,-1,-1,48,50,52,-1,-1,-1,-1,-1,-1,-1,-1,-1,-1,-1,-1],"split_conditions":[7.960372E0,5.349673E0,2.0008904E1,4E0,7.624981E0,3E0,2.4629536E1,5E0,-1.7720994E0,4E0,-2.6312944E-1,1.1696565E1,1.696698E1,9E0,2.8981676E1,2E0,1.6678604E0,-1.8816699E0,-4.0711558E-1,2E0,1.736604E1,4E0,1.3295945E0,8E0,1.1354805E0,1E0,3.6859837E1,3.6798707E-1,3E0,1E0,4.4133E-1,2.5853875E0,-2.3782884E-1,6E0,8.6110383E-1,-2.6906476E0,-7.163281E-1,1.8621308E0,2E0,3.517558E1,3.7384266E1,-2.241211E-2,-2.189209E-1,-1.9179154E-2,-4.5938188E-1,-5.222443E-1,-2.0132742E0,-2.8588602E-1,3.667847E-1,1.5346679E-1,-1.8514805E0,2.6673844E0,-4.052203E-2],"split_indices":[3,3,3,1,3,1,3,0,0,1,0,3,3,0,3,1,0,0,0,0,3,1,0,0,0,1,3,0,0,0,0,0,0,0,0,0,0,0,0,3,3,0,0,0,0,0,0,0,0,0,0,0,0],"split_type":[0,0,0,0,0,0,0,0,0,0,0,0,0,0,0,0,0,0,0,0,0,0,0,0,0,0,0,0,0,0,0,0,0,0,0,0,0,0,0,0,0,0,0,0,0,0,0,0,0,0,0,0,0],"sum_hessian":[1E2,1.1E1,8.9E1,6E0,5E0,1.2E1,7.7E1,5E0,1E0,4E0,1E0,7E0,5E0,4E0,7.3E1,3E0,2E0,3E0,1E0,3E0,4E0,3E0,2E0,3E0,1E0,5E0,6.8E1,1E0,2E0,2E0,1E0,3E0,1E0,2E0,1E0,2E0,1E0,2E0,3E0,8E0,6E1,1E0,1E0,1E0,1E0,1E0,1E0,1E0,2E0,5E0,3E0,1E0,5.9E1],"tree_param":{"num_deleted":"0","num_feature":"4","num_nodes":"53","size_leaf_vector":"1"}},{"base_weights":[-3.2523736E-2,-1.3617891E-1,1.0196816E0,8.984448E-2,-3.6545157E0,-1.8628442E-1,1.68103E0,-1.3548478E0,9.805527E-2,7.894945E-2,-3.514866E0,2.159482E0,1.6163349E-1,-2.3197868E-1,2.154273E0,-4.242473E0,1.8475343E-2,1.4810469E0,-2.847455E0,-5.867893E-1,1.7927374E-1,1.3916831E0,-8.259936E-2,-2.0575562E-1,-1.4880497E0,7.278786E-1,-9.211121E-2,-1.167844E0,4.3293E-2],"categories":[],"categories_nodes":[],"categories_segments":[],"categories_sizes":[],"default_left":[0,0,0,0,0,0,0,0,0,0,0,0,0,0,0,0,0,0,0,0,0,0,0,0,0,0,0,0,0],"id":18,"left_children":[1,3,-1,5,7,9,11,-1,-1,13,15,-1,17,19,21,23,-1,25,27,-1,-1,-1,-1,-1,-1,-1,-1,-1,-1],"loss_changes":[3.6387436E1,7.905576E1,0E0,4.1614147E1,2.205922E1,7.178857E1,1.1619683E2,0E0,0E0,4.954076E1,1.5874771E1,0E0,5.1859997E1,9.69886E1,6.16449E1,9.360855E0,0E0,1.5956068E1,1.3071636E1,0E0,0E0,0E0,0E0,0E0,0E0,0E0,0E0,0E0,0E0],"parents":[2147483647,0,0,1,1,3,3,4,4,5,5,6,6,9,9,10,10,12,12,13,13,14,14,15,15,17,17,18,18],"right_children":[2,4,-1,6,8,10,12,-1,-1,14,16,-1,18,20,22,24,-1,26,28,-1,-1,-1,-1,-1,-1,-1,-1,-1,-1],"split_conditions":[9.9516464E1,9.341659E1,1.0196816E0,7.981309E1,4E0,7.226598E1,8.21052E1,-1.3548478E0,9.805527E-2,6.557916E1,7.920692E1,2.159482E0,3E0,2E0,6.96636E1,1E0,1.8475343E-2,8.550164E1,4E0,-5.867893E-1,1.7927374E-1,1.3916831E0,-8.259936E-2,-2.0575562E-1,-1.4880497E0,7.278786E-1,-9.211121E-2,-1.167844E0,4.3293E-2],"split_indices":[3,3,0,3,1,3,3,0,0,3,3,0,1,1,3,0,0,3,0,0,0,0,0,0,0,0,0,0,0],"split_type":[0,0,0,0,0,0,0,0,0,0,0,0,0,0,0,0,0,0,0,0,0,0,0,0,0,0,0,0,0],"sum_hessian":[1E2,9.8E1,2E0,9.3E1,5E0,8E1,1.3E1,4E0,1E0,7.5E1,5E0,2E0,1.1E1,6.6E1,9E0,4E0,1E0,8E0,3E0,2.1E1,4.5E1,4E0,5E0,1E0,3E0,5E0,3E0,2E0,1E0],"tree_param":{"num_deleted":"0","num_feature":"4","num_nodes":"29","size_leaf_vector":"1"}},{"base_weights":[-1.6233912E-2,-1.57476E0,1.9174995E-1,5.2987236E-1,-3.7677042E0,1.9758655E0,-1.0806098E-1,2.3217132E0,-1.533176E0,-4.34039E0,-1.356411E-1,1.7280419E0,1.1804976E0,-3.5137753E0,1.2351515E-1,-5.75367E-1,1.1742285E0,-1.4411764E0,-3.7294006E-1,2.9041302E0,-4.6554428E-1,-6.1475143E0,1.0531769E0,2.9355175E0,-1.2279688E-1,-4.5941163E-2,-2.1297398E-1,-7.681096E-1,1.4796834E0,-1.4726485E0,2.2935348E0,-2.111766E0,-5.2085954E-1,1.6070619E0,3.8562202E-1,-1.5256792E0,2.95146E-1,-4.3193437E-2,-3.024559E-1,9.7459835E-1,-2.290455E-1,-1.5498391E-1,2.5757143E-1,-1.9169807E-1,-2.2238946E0,1.3407135E0,-3.8444042E-2],"categories":[],"categories_nodes":[],"categories_segments":[],"categories_sizes":[],"default_left":[0,0,0,0,0,0,0,0,0,0,0,0,0,0,0,0,0,0,0,0,0,0,0,0,0,0,0,0,0,0,0,0,0,0,0,0,0,0,0,0,0,0,0,0,0,0,0],"id":19,"left_children":[1,3,5,7,9,11,13,15,-1,17,-1,-1,19,21,23,25,-1,-1,-1,27,29,31,-1,33,35,-1,-1,37,-1,-1,39,-1,-1,-1,41,43,45,-1,-1,-1,-1,-1,-1,-1,-1,-1,-1],"loss_changes":[3.304093E1,5.73805E1,4.8354267E1,8.261294E1,9.430229E0,3.2328743E1,6.195121E1,2.9931583E1,0E0,1.2064514E0,0E0,0E0,3.539806E1,1.1408312E2,5.1615093E1,6.1714232E-2,0E0,0E0,0E0,4.8475594E1,9.707417E1,3.5128784E0,0E0,3.4979485E1,4.09067E1,0E0,0E0,3.0436146E-1,0E0,0E0,1.7079502E1,0E0,0E0,0E0,2.150395E0,7.878615E1,9.5978874E1,0E0,0E0,0E0,0E0,0E0,0E0,0E0,0E0,0E0,0E0],"parents":[2147483647,0,0,1,1,2,2,3,3,4,4,5,5,6,6,7,7,9,9,12,12,13,13,14,14,15,15,19,19,20,20,21,21,23,23,24,24,27,27,30,30,34,34,35,35,36,36],"right_children":[2,4,6,8,10,12,14,16,-1,18,-1,-1,20,22,24,26,-1,-1,-1,28,30,32,-1,34,36,-1,-1,38,-1,-1,40,-1,-1,-1,42,44,46,-1,-1,-1,-1,-1,-1,-1,-1,-1,-1],"split_conditions":[7.960372E0,5.349673E0,2.0008904E1,4E0,7.624981E0,1E0,2.4629536E1,2E0,-1.533176E0,4E0,-1.356411E-1,1.7280419E0,1.4572163E1,9E0,2.8981676E1,3E0,1.1742285E0,-1.4411764E0,-3.7294006E-1,2E0,1.696698E1,8E0,1.0531769E0,1E0,4.129519E1,-4.5941163E-2,-2.1297398E-1,1E0,1.4796834E0,-1.4726485E0,6E0,-2.111766E0,-5.2085954E-1,1.6070619E0,2E0,3.9511234E1,4.3209194E1,-4.3193437E-2,-3.024559E-1,9.7459835E-1,-2.290455E-1,-1.5498391E-1,2.5757143E-1,-1.9169807E-1,-2.2238946E0,1.3407135E0,-3.8444042E-2],"split_indices":[3,3,3,1,3,1,3,2,0,1,0,0,3,0,3,0,0,0,0,0,3,0,0,1,3,0,0,0,0,0,0,0,0,0,0,3,3,0,0,0,0,0,0,0,0,0,0],"split_type":[0,0,0,0,0,0,0,0,0,0,0,0,0,0,0,0,0,0,0,0,0,0,0,0,0,0,0,0,0,0,0,0,0,0,0,0,0,0,0,0,0,0,0,0,0,0,0],"sum_hessian":[1E2,1.1E1,8.9E1,6E0,5E0,1.2E1,7.7E1,5E0,1E0,4E0,1E0,1E0,1.1E1,4E0,7.3E1,2E0,3E0,3E0,1E0,5E0,6E0,3E0,1E0,5E0,6.8E1,1E0,1E0,2E0,3E0,2E0,4E0,2E0,1E0,2E0,3E0,1.5E1,5.3E1,1E0,1E0,3E0,1E0,1E0,2E0,1.4E1,1E0,4E0,4.9E1],"tree_param":{"num_deleted":"0","num_feature":"4","num_nodes":"47","size_leaf_vector":"1"}},{"base_weights":[-2.538233E-2,-1.09070145E-1,2.7447765E0,7.4273415E-2,-2.5293388E0,1.0250657E0,2.1008378E-1,1.4656312E0,-2.56236E-1,-1.2662574E0,-1.5161743E0,-1.6497978E0,2.4735966E0,-1.384194E0,9.222979E-2,-4.9149826E-1,8.9114E-2,-1.7272595E0,3.0078685E0,3.2845888E0,-3.7503147E-1,-3.668321E0,2.7291942E0,4.594584E-1,-1.7531363E0,1.4688355E0,-1.1529465E-1,3.445747E-1,1.3023243E0,-3.2463875E-1,2.6193926E-1,-4.202532E-2,-2.1519632E0,1.3678769E0,-3.6935884E-1,-6.645314E-2,8.6818194E-1,-7.40537E-1,-1.8912507E-2],"categories":[],"categories_nodes":[],"categories_segments":[],"categories_sizes":[],"default_left":[0,0,0,0,0,0,0,0,0,0,0,0,0,0,0,0,0,0,0,0,0,0,0,0,0,0,0,0,0,0,0,0,0,0,0,0,0,0,0],"id":20,"left_children":[1,3,5,7,9,-1,-1,11,13,15,-1,17,19,21,23,-1,-1,-1,25,27,29,31,33,35,37,-1,-1,-1,-1,-1,-1,-1,-1,-1,-1,-1,-1,-1,-1],"loss_changes":[2.3714054E1,4.4118195E1,1.7296009E0,4.314223E1,1.592165E1,0E0,0E0,6.0605328E1,2.9999825E1,3.976613E0,0E0,1.1298016E2,3.3574837E1,1.7913057E2,4.0788097E1,0E0,0E0,0E0,2.1097525E1,1.9837318E1,4.475131E0,1.4738806E2,5.6357307E1,8.353134E1,1.1933975E1,0E0,0E0,0E0,0E0,0E0,0E0,0E0,0E0,0E0,0E0,0E0,0E0,0E0,0E0],"parents":[2147483647,0,0,1,1,2,2,3,3,4,4,7,7,8,8,9,9,11,11,12,12,13,13,14,14,18,18,19,19,20,20,21,21,22,22,23,23,24,24],"right_children":[2,4,6,8,10,-1,-1,12,14,16,-1,18,20,22,24,-1,-1,-1,26,28,30,32,34,36,38,-1,-1,-1,-1,-1,-1,-1,-1,-1,-1,-1,-1,-1,-1],"split_conditions":[9.9516464E1,9.1841835E1,1E0,1E0,5E0,1.0250657E0,2.1008378E-1,2.4629536E1,2E0,4E0,-1.5161743E0,8E0,3E0,6.557916E1,8E0,-4.9149826E-1,8.9114E-2,-1.7272595E0,9E0,2E0,9E0,2.962184E1,1E1,6E0,4E0,1.4688355E0,-1.1529465E-1,3.445747E-1,1.3023243E0,-3.2463875E-1,2.6193926E-1,-4.202532E-2,-2.1519632E0,1.3678769E0,-3.6935884E-1,-6.645314E-2,8.6818194E-1,-7.40537E-1,-1.8912507E-2],"split_indices":[3,3,0,1,0,0,0,3,1,1,0,0,2,3,0,0,0,0,0,2,0,3,0,0,1,0,0,0,0,0,0,0,0,0,0,0,0,0,0],"split_type":[0,0,0,0,0,0,0,0,0,0,0,0,0,0,0,0,0,0,0,0,0,0,0,0,0,0,0,0,0,0,0,0,0,0,0,0,0,0,0],"sum_hessian":[1E2,9.8E1,2E0,9.2E1,6E0,1E0,1E0,1.7E1,7.5E1,5E0,1E0,4E0,1.3E1,1.7E1,5.8E1,4E0,1E0,2E0,2E0,1E1,3E0,1.1E1,6E0,4.9E1,9E0,1E0,1E0,4E0,6E0,2E0,1E0,6E0,5E0,4E0,2E0,3.9E1,1E1,6E0,3E0],"tree_param":{"num_deleted":"0","num_feature":"4","num_nodes":"39","size_leaf_vector":"1"}},{"base_weights":[-2.3967171E-2,-1.1623353E0,1.2808155E-1,-3.232068E-1,-3.5719852E0,1.2529689E0,-6.104174E-2,-1.5164486E0,2.966507E0,-1.2932314E0,-3.1416208E-1,2.257143E0,-2.9475817E-1,-9.487756E-1,6.219079E-2,5.1392555E-2,-2.4674318E0,1.653534E-1,1.1695747E0,-4.6912003E-1,3.9867249E0,-2.5576196E0,8.46193E-1,1.3086177E0,-1.464893E-1,2.3097725E-1,-4.4475937E-1,-8.762868E-1,-9.800034E-2,-2.5078356E-1,-6.819662E-2,1.8682725E0,4.1696677E-1,-1.6475044E0,2.509613E-1,2.7309647E0,-3.3183226E-1,-1.7463924E0,1.7039324E-1,-2.9081726E-2,-1.7106E-1,-2.6747132E-2,-3.9413455E-3,2.712433E-1,-8.360825E-2,-2.3993455E-1,3.5286713E-1,1.5526704E0,-4.3164828E-1,-4.6798167E-1,8.713051E-1,7.735363E-2,-1.595481E0,-9.088754E-2,9.14512E-1],"categories":[],"categories_nodes":[],"categories_segments":[],"categories_sizes":[],"default_left":[0,0,0,0,0,0,0,0,0,0,0,0,0,0,0,0,0,0,0,0,0,0,0,0,0,0,0,0,0,0,0,0,0,0,0,0,0,0,0,0,0,0,0,0,0,0,0,0,0,0,0,0,0,0,0],"id":21,"left_children":[1,3,5,7,9,11,13,15,17,-1,-1,19,21,-1,23,25,27,-1,-1,29,31,33,-1,35,37,-1,39,-1,-1,-1,41,-1,43,-1,45,47,49,51,53,-1,-1,-1,-1,-1,-1,-1,-1,-1,-1,-1,-1,-1,-1,-1,-1],"loss_changes":[1.7630703E1,2.3109585E1,1.9223297E1,4.3752792E1,1.0815392E0,2.086975E1,3.0009146E1,1.2054731E1,4.604994E0,0E0,0E0,3.959261E1,4.951246E1,0E0,1.9959639E1,1.7684343E0,3.900261E0,0E0,0E0,5.312665E-1,3.7399773E1,3.4340397E1,0E0,2.6572401E1,3.3758343E1,0E0,7.561761E-2,0E0,0E0,0E0,2.2908477E-3,0E0,1.2687109E0,0E0,3.8573618E0,6.8607666E1,2.8376871E1,8.0119095E1,7.721215E1,0E0,0E0,0E0,0E0,0E0,0E0,0E0,0E0,0E0,0E0,0E0,0E0,0E0,0E0,0E0,0E0],"parents":[2147483647,0,0,1,1,2,2,3,3,4,4,5,5,6,6,7,7,8,8,11,11,12,12,14,14,15,15,16,16,19,19,20,20,21,21,23,23,24,24,26,26,30,30,32,32,34,34,35,35,36,36,37,37,38,38],"right_children":[2,4,6,8,10,12,14,16,18,-1,-1,20,22,-1,24,26,28,-1,-1,30,32,34,-1,36,38,-1,40,-1,-1,-1,42,-1,44,-1,46,48,50,52,54,-1,-1,-1,-1,-1,-1,-1,-1,-1,-1,-1,-1,-1,-1,-1,-1],"split_conditions":[7.960372E0,4E0,2.0008904E1,3E0,6E0,3E0,2.369329E1,3.9138708E0,2.0378995E0,-1.2932314E0,-3.1416208E-1,1.1696565E1,1.696698E1,-9.487756E-1,1E0,2E0,7.624981E0,1.653534E-1,1.1695747E0,2E0,1.6539644E1,1E0,8.46193E-1,3E0,2E0,2.3097725E-1,3E0,-8.762868E-1,-9.800034E-2,-2.5078356E-1,1E0,1.8682725E0,2E0,-1.6475044E0,6E0,8.028408E1,9.9516464E1,3E0,3E0,-2.9081726E-2,-1.7106E-1,-2.6747132E-2,-3.9413455E-3,2.712433E-1,-8.360825E-2,-2.3993455E-1,3.5286713E-1,1.5526704E0,-4.3164828E-1,-4.6798167E-1,8.713051E-1,7.735363E-2,-1.595481E0,-9.088754E-2,9.14512E-1],"split_indices":[3,1,3,2,0,1,3,3,3,0,0,3,3,0,0,1,3,0,0,1,3,2,0,2,0,0,0,0,0,0,0,0,0,0,0,3,3,1,2,0,0,0,0,0,0,0,0,0,0,0,0,0,0,0,0],"split_type":[0,0,0,0,0,0,0,0,0,0,0,0,0,0,0,0,0,0,0,0,0,0,0,0,0,0,0,0,0,0,0,0,0,0,0,0,0,0,0,0,0,0,0,0,0,0,0,0,0,0,0,0,0,0,0],"sum_hessian":[1E2,1.1E1,8.9E1,9E0,2E0,1.2E1,7.7E1,7E0,2E0,1E0,1E0,7E0,5E0,2E0,7.5E1,3E0,4E0,1E0,1E0,3E0,4E0,3E0,2E0,1E1,6.5E1,1E0,2E0,3E0,1E0,1E0,2E0,2E0,2E0,1E0,2E0,5E0,5E0,1E1,5.5E1,1E0,1E0,1E0,1E0,1E0,1E0,1E0,1E0,3E0,2E0,4E0,1E0,7E0,3E0,4.8E1,7E0],"tree_param":{"num_deleted":"0","num_feature":"4","num_nodes":"55","size_leaf_vector":"1"}},{"base_weights":[-1.9241413E-2,-8.244586E-2,2.0729191E0,1.0885369E-1,-1.4784387E0,7.40609E-1,1.9220467E-1,-1.1460048E-1,2.3577204E0,5.885825E-1,-2.5855222E0,1.0058513E-1,-2.8211849E0,4.3423767E0,2.9845124E-1,-3.2907072E-1,6.23362E-1,-4.416666E-1,-3.783502E0,-3.3184066E-1,1.1770777E0,-3.445517E0,4.5071412E-2,1.6799682E0,8.5473634E-2,-7.5301933E-1,6.7565006E-1,-2.3625375E-1,8.938065E-2,-1.3004835E0,-2.3665982E-1,6.807249E-3,-1.457337E0,-2.775829E-1,1.0090643E0,-8.896065E-2,-1.2475886E0,-3.4531862E-1,6.616631E-2],"categories":[],"categories_nodes":[],"categories_segments":[],"categories_sizes":[],"default_left":[0,0,0,0,0,0,0,0,0,0,0,0,0,0,0,0,0,0,0,0,0,0,0,0,0,0,0,0,0,0,0,0,0,0,0,0,0,0,0],"id":22,"left_children":[1,3,5,7,9,-1,-1,11,13,15,17,19,21,23,25,-1,-1,27,29,31,33,35,-1,-1,-1,37,-1,-1,-1,-1,-1,-1,-1,-1,-1,-1,-1,-1,-1],"loss_changes":[1.3526524E1,2.659916E1,1.1889076E-1,4.4491833E1,2.8982176E1,0E0,0E0,4.745963E1,3.1399544E1,1.4830109E1,1.8875328E1,3.5768837E1,1.1648575E1,1.8813858E1,1.1967297E1,0E0,0E0,1.2577813E0,4.837158E0,8.836276E1,1.04240364E2,9.994698E0,0E0,0E0,0E0,1.8039672E0,0E0,0E0,0E0,0E0,0E0,0E0,0E0,0E0,0E0,0E0,0E0,0E0,0E0],"parents":[2147483647,0,0,1,1,2,2,3,3,4,4,7,7,8,8,9,9,10,10,11,11,12,12,13,13,14,14,17,17,18,18,19,19,20,20,21,21,25,25],"right_children":[2,4,6,8,10,-1,-1,12,14,16,18,20,22,24,26,-1,-1,28,30,32,34,36,-1,-1,-1,38,-1,-1,-1,-1,-1,-1,-1,-1,-1,-1,-1,-1,-1],"split_conditions":[9.9516464E1,8.3357666E1,1E0,7.981309E1,2E0,7.40609E-1,1.9220467E-1,7.226598E1,2E0,1E0,3E0,4.8638035E1,7.920692E1,4E0,2E0,-3.2907072E-1,6.23362E-1,2E0,3E0,4.3209194E1,2E0,1E0,4.5071412E-2,1.6799682E0,8.5473634E-2,1E0,6.7565006E-1,-2.3625375E-1,8.938065E-2,-1.3004835E0,-2.3665982E-1,6.807249E-3,-1.457337E0,-2.775829E-1,1.0090643E0,-8.896065E-2,-1.2475886E0,-3.4531862E-1,6.616631E-2],"split_indices":[3,3,0,3,2,0,0,3,1,2,0,3,3,0,2,0,0,0,2,3,2,0,0,0,0,0,0,0,0,0,0,0,0,0,0,0,0,0,0],"split_type":[0,0,0,0,0,0,0,0,0,0,0,0,0,0,0,0,0,0,0,0,0,0,0,0,0,0,0,0,0,0,0,0,0,0,0,0,0,0,0],"sum_hessian":[1E2,9.8E1,2E0,8.7E1,1.1E1,1E0,1E0,8E1,7E0,4E0,7E0,7.5E1,5E0,3E0,4E0,2E0,2E0,3E0,4E0,5.4E1,2.1E1,4E0,1E0,2E0,1E0,3E0,1E0,2E0,1E0,3E0,1E0,5.1E1,3E0,1.1E1,1E1,1E0,3E0,2E0,1E0],"tree_param":{"num_deleted":"0","num_feature":"4","num_nodes":"39","size_leaf_vector":"1"}},{"base_weights":[-1.6492782E-2,-9.212003E-1,1.04318134E-1,-1.93223E-1,-3.0407245E0,-3.6116385E-1,4.0710056E-1,-1.1854012E0,2.5169933E0,-1.1002676E0,-2.6805842E-1,1.8293915E0,-6.921518E-1,-1.8099E-1,1.0700089E0,3.8578987E-2,-1.9275051E0,1.3952866E-1,9.9311835E-1,2.7786255E0,-2.9513168E-1,-1.913301E0,3.6392552E-1,3.5664633E-1,-3.7647877E0,4.9653754E0,-3.4686992E-1,1.9530946E-1,-3.8258234E-1,-7.678393E-1,-1.9591333E-1,-2.1418764E-1,1.2542421E0,8.49596E-1,-4.4370356E0,1.359102E0,-4.4002247E-1,3.392656E-2,1.3121041E0,-1.1248627E-1,-1.4309242E0,2.414963E0,2.1216004E0,-7.488133E-1,1.4481068E0,-2.5740052E-2,-1.4642201E-1,-1.2657143E0,6.5292275E-1,-3.420036E-1,-2.234717E0,2.863766E-1,-4.116744E-1,5.082701E-1,-1.6466317E-1,1.5666619E-1,1.2778679E0,-9.0878405E-2,-4.0275505E-1,6.295166E-1,1.5956497E-1],"categories":[],"categories_nodes":[],"categories_segments":[],"categories_sizes":[],"default_left":[0,0,0,0,0,0,0,0,0,0,0,0,0,0,0,0,0,0,0,0,0,0,0,0,0,0,0,0,0,0,0,0,0,0,0,0,0,0,0,0,0,0,0,0,0,0,0,0,0,0,0,0,0,0,0,0,0,0,0,0,0],"id":23,"left_children":[1,3,5,7,9,11,13,15,17,-1,-1,19,21,23,25,27,29,-1,-1,31,-1,33,35,37,39,41,43,-1,45,-1,-1,-1,-1,47,49,-1,51,53,-1,-1,-1,-1,55,57,59,-1,-1,-1,-1,-1,-1,-1,-1,-1,-1,-1,-1,-1,-1,-1,-1],"loss_changes":[1.113525E1,1.7928047E1,1.283161E1,2.9873821E1,7.607441E-1,2.736792E1,2.1635418E1,7.3409243E0,3.344284E0,0E0,0E0,1.6085287E1,4.1964394E1,5.9146088E1,1.4522316E2,1.2808385E0,2.3555927E0,0E0,0E0,2.2573864E1,0E0,1.0836195E2,6.2285892E1,3.4853775E1,1.183815E1,4.4322754E1,1.551394E1,0E0,5.2046776E-2,0E0,0E0,0E0,0E0,6.2983513E1,7.095361E1,0E0,2.2111406E1,2.6088387E1,0E0,0E0,0E0,0E0,1.4872616E1,4.0936146E0,1.2671165E0,0E0,0E0,0E0,0E0,0E0,0E0,0E0,0E0,0E0,0E0,0E0,0E0,0E0,0E0,0E0,0E0],"parents":[2147483647,0,0,1,1,2,2,3,3,4,4,5,5,6,6,7,7,8,8,11,11,12,12,13,13,14,14,15,15,16,16,19,19,21,21,22,22,23,23,24,24,25,25,26,26,28,28,33,33,34,34,36,36,37,37,42,42,43,43,44,44],"right_children":[2,4,6,8,10,12,14,16,18,-1,-1,20,22,24,26,28,30,-1,-1,32,-1,34,36,38,40,42,44,-1,46,-1,-1,-1,-1,48,50,-1,52,54,-1,-1,-1,-1,56,58,60,-1,-1,-1,-1,-1,-1,-1,-1,-1,-1,-1,-1,-1,-1,-1,-1],"split_conditions":[7.960372E0,4E0,2E0,3E0,6E0,2.3820984E1,4.8638035E1,3.9138708E0,2.0378995E0,-1.1002676E0,-2.6805842E-1,2E0,6.557916E1,4.3209194E1,6.4077835E1,2E0,6.2357855E0,1.3952866E-1,9.9311835E-1,2E0,-2.9513168E-1,1E0,6.96636E1,4.2958923E1,3E0,4E0,9.5595276E1,1.9530946E-1,3E0,-7.678393E-1,-1.9591333E-1,-2.1418764E-1,1.2542421E0,2.4629536E1,3E0,1.359102E0,4E0,3E0,1.3121041E0,-1.1248627E-1,-1.4309242E0,2.414963E0,5.480223E1,2E0,1E0,-2.5740052E-2,-1.4642201E-1,-1.2657143E0,6.5292275E-1,-3.420036E-1,-2.234717E0,2.863766E-1,-4.116744E-1,5.082701E-1,-1.6466317E-1,1.5666619E-1,1.2778679E0,-9.0878405E-2,-4.0275505E-1,6.295166E-1,1.5956497E-1],"split_indices":[3,1,1,2,0,3,3,3,3,0,0,2,3,3,3,1,3,0,0,0,0,1,3,3,1,1,3,0,0,0,0,0,0,3,0,0,0,0,0,0,0,0,3,2,0,0,0,0,0,0,0,0,0,0,0,0,0,0,0,0,0],"split_type":[0,0,0,0,0,0,0,0,0,0,0,0,0,0,0,0,0,0,0,0,0,0,0,0,0,0,0,0,0,0,0,0,0,0,0,0,0,0,0,0,0,0,0,0,0,0,0,0,0,0,0,0,0,0,0,0,0,0,0,0,0],"sum_hessian":[1E2,1.1E1,8.9E1,9E0,2E0,3.5E1,5.4E1,7E0,2E0,1E0,1E0,4E0,3.1E1,2.9E1,2.5E1,3E0,4E0,1E0,1E0,3E0,1E0,1.4E1,1.7E1,2.6E1,3E0,6E0,1.9E1,1E0,2E0,2E0,2E0,1E0,2E0,7E0,7E0,2E0,1.5E1,2.5E1,1E0,1E0,2E0,2E0,4E0,1.6E1,3E0,1E0,1E0,1E0,6E0,4E0,3E0,6E0,9E0,6E0,1.9E1,3E0,1E0,1E1,6E0,1E0,2E0],"tree_param":{"num_deleted":"0","num_feature":"4","num_nodes":"61","size_leaf_vector":"1"}},{"base_weights":[6.970958E-3,-2.9973215E-1,2.7946684E-1,1.0009536E-1,-2.6558783E0,1.4722092E0,9.955627E-2,-2.5360045E-1,2.1902437E0,3.842743E-1,-3.5254962E0,-1.0692616E0,5.4654884E-1,1.9870053E-1,-1.346118E0,-1.2475255E0,-5.4132845E-2,-2.7989318E0,3.9484447E-1,2.6057937E0,-2.533905E-1,-7.3634726E-1,7.1437925E-1,-1.8741304E-1,-3.5436788E0,-8.602651E-1,8.7634224E-1,3.5430562E-1,1.9371964E0,-8.564533E-1,1.1819106E0,-3.2312375E-1,2.616089E-1,6.594226E-2,1.280391E0,-2.1637116E-1,-1.5554683E0,8.5872464E-2,-4.7299176E-1,-2.46278E-1,5.158306E-1,-9.565588E-1,9.3531376E-1,-2.5986949E-2,-7.1512175E-1,8.7504363E-1,-5.150261E-2],"categories":[],"categories_nodes":[],"categories_segments":[],"categories_sizes":[],"default_left":[0,0,0,0,0,0,0,0,0,0,0,0,0,0,0,0,0,0,0,0,0,0,0,0,0,0,0,0,0,0,0,0,0,0,0,0,0,0,0,0,0,0,0,0,0,0,0],"id":24,"left_children":[1,3,5,7,9,-1,11,13,-1,-1,15,17,19,21,-1,-1,-1,23,25,27,29,31,33,-1,35,37,39,41,-1,43,45,-1,-1,-1,-1,-1,-1,-1,-1,-1,-1,-1,-1,-1,-1,-1,-1],"loss_changes":[8.524875E0,4.548434E1,4.447225E1,1.0881975E2,2.8480396E1,0E0,2.8274408E1,7.9398285E1,0E0,0E0,1.1952591E1,3.9091454E1,6.490385E1,1.8849033E1,0E0,0E0,0E0,9.120941E0,6.1928787E0,9.310047E1,2.6113977E1,8.611601E0,4.2999504E1,0E0,1.942163E1,2.9152827E0,1.1428217E1,8.8263275E1,0E0,2.4484272E1,2.1635784E1,0E0,0E0,0E0,0E0,0E0,0E0,0E0,0E0,0E0,0E0,0E0,0E0,0E0,0E0,0E0,0E0],"parents":[2147483647,0,0,1,1,2,2,3,3,4,4,6,6,7,7,10,10,11,11,12,12,13,13,17,17,18,18,19,19,20,20,21,21,22,22,24,24,25,25,26,26,27,27,29,29,30,30],"right_children":[2,4,6,8,10,-1,12,14,-1,-1,16,18,20,22,-1,-1,-1,24,26,28,30,32,34,-1,36,38,40,42,-1,44,46,-1,-1,-1,-1,-1,-1,-1,-1,-1,-1,-1,-1,-1,-1,-1,-1],"split_conditions":[4.129519E1,3.7384266E1,4.1694977E1,3.6859837E1,2E0,1.4722092E0,2E0,3.517558E1,2.1902437E0,3.842743E-1,4E0,6.434347E1,6.4077835E1,4E0,-1.346118E0,-1.2475255E0,-5.4132845E-2,4.850709E1,1E0,2E0,8E0,3.1736639E1,2.5230951E1,-1.8741304E-1,1E0,3E0,1E0,5.121935E1,1.9371964E0,6E0,1E1,-3.2312375E-1,2.616089E-1,6.594226E-2,1.280391E0,-2.1637116E-1,-1.5554683E0,8.5872464E-2,-4.7299176E-1,-2.46278E-1,5.158306E-1,-9.565588E-1,9.3531376E-1,-2.5986949E-2,-7.1512175E-1,8.7504363E-1,-5.150261E-2],"split_indices":[3,3,3,3,2,0,0,3,0,0,1,3,3,0,0,0,0,3,2,2,0,3,3,0,0,1,1,3,0,0,0,0,0,0,0,0,0,0,0,0,0,0,0,0,0,0,0],"split_type":[0,0,0,0,0,0,0,0,0,0,0,0,0,0,0,0,0,0,0,0,0,0,0,0,0,0,0,0,0,0,0,0,0,0,0,0,0,0,0,0,0,0,0,0,0,0,0],"sum_hessian":[1E2,4.7E1,5.3E1,4.1E1,6E0,1E0,5.2E1,4E1,1E0,1E0,5E0,1.4E1,3.8E1,3.7E1,3E0,4E0,1E0,6E0,8E0,1E1,2.8E1,1.3E1,2.4E1,2E0,4E0,2E0,6E0,7E0,3E0,2E1,8E0,1.1E1,2E0,2.2E1,2E0,2E0,2E0,1E0,1E0,2E0,4E0,3E0,4E0,1.4E1,6E0,3E0,5E0],"tree_param":{"num_deleted":"0","num_feature":"4","num_nodes":"47","size_leaf_vector":"1"}},{"base_weights":[3.067356E-2,-7.384669E-1,1.328848E-1,-9.7587205E-2,-2.628577E0,1.5849787E0,2.8820705E-2,-9.0778875E-1,2.0954792E0,-9.4511896E-1,-2.3774071E-1,1.8538208E-1,1.2874444E0,-1.3865917E0,1.3921076E-1,8.060169E-2,-1.5169433E0,1.08707435E-1,8.342583E-1,-2.911415E-1,3.1372148E-1,1.6824265E0,-1.0677057E-3,1.5612145E-1,-2.3946762E-1,-5.3644127E-1,-6.482506E-2,-1.2341309E-1,1.0434723E-2,6.530371E-1,7.6745605E-1,-1.8702501E0,1.2524283E-1,2.6589204E-2,-1.3434964E-1,-1.9015962E-1,4.3375552E-1,-1.0593871E0,7.160866E-1,4.5875618E-1,-1.3278484E-2],"categories":[],"categories_nodes":[],"categories_segments":[],"categories_sizes":[],"default_left":[0,0,0,0,0,0,0,0,0,0,0,0,0,0,0,0,0,0,0,0,0,0,0,0,0,0,0,0,0,0,0,0,0,0,0,0,0,0,0,0,0],"id":25,"left_children":[1,3,5,7,9,11,13,15,17,-1,-1,19,-1,-1,21,23,25,-1,-1,27,-1,29,31,-1,33,-1,-1,-1,-1,-1,35,37,39,-1,-1,-1,-1,-1,-1,-1,-1],"loss_changes":[8.038226E0,1.4279482E1,1.3554296E1,1.9670511E1,3.7775803E-1,2.1932507E1,4.4282536E1,4.938929E0,2.5558805E0,0E0,0E0,2.3543577E0,0E0,0E0,1.818611E1,6.8769E-1,1.3775396E0,0E0,0E0,1.7105913E-1,0E0,1.4957085E0,1.8649836E1,0E0,2.4478377E-1,0E0,0E0,0E0,0E0,0E0,4.7190766E0,4.3785976E1,1.767782E1,0E0,0E0,0E0,0E0,0E0,0E0,0E0,0E0],"parents":[2147483647,0,0,1,1,2,2,3,3,4,4,5,5,6,6,7,7,8,8,11,11,14,14,15,15,16,16,19,19,21,21,22,22,24,24,30,30,31,31,32,32],"right_children":[2,4,6,8,10,12,14,16,18,-1,-1,20,-1,-1,22,24,26,-1,-1,28,-1,30,32,-1,34,-1,-1,-1,-1,-1,36,38,40,-1,-1,-1,-1,-1,-1,-1,-1],"split_conditions":[7.960372E0,4E0,1.4572163E1,3E0,6E0,1.1696565E1,1.5434046E1,3.9138708E0,2.0378995E0,-9.4511896E-1,-2.3774071E-1,3E0,1.2874444E0,-1.3865917E0,2.0008904E1,2E0,7.624981E0,1.08707435E-1,8.342583E-1,2E0,3.1372148E-1,2E0,2.4629536E1,1.5612145E-1,3E0,-5.3644127E-1,-6.482506E-2,-1.2341309E-1,1.0434723E-2,6.530371E-1,1.696698E1,9E0,3.0387516E1,2.6589204E-2,-1.3434964E-1,-1.9015962E-1,4.3375552E-1,-1.0593871E0,7.160866E-1,4.5875618E-1,-1.3278484E-2],"split_indices":[3,1,3,2,0,3,3,3,3,0,0,1,0,0,3,1,3,0,0,0,0,2,3,0,0,0,0,0,0,0,3,0,3,0,0,0,0,0,0,0,0],"split_type":[0,0,0,0,0,0,0,0,0,0,0,0,0,0,0,0,0,0,0,0,0,0,0,0,0,0,0,0,0,0,0,0,0,0,0,0,0,0,0,0,0],"sum_hessian":[1E2,1.1E1,8.9E1,9E0,2E0,5E0,8.4E1,7E0,2E0,1E0,1E0,4E0,1E0,1E0,8.3E1,3E0,4E0,1E0,1E0,3E0,1E0,6E0,7.7E1,1E0,2E0,3E0,1E0,2E0,1E0,3E0,3E0,4E0,7.3E1,1E0,1E0,1E0,2E0,3E0,1E0,7E0,6.6E1],"tree_param":{"num_deleted":"0","num_feature":"4","num_nodes":"41","size_leaf_vector":"1"}},{"base_weights":[2.4515826E-2,1.3951977E-1,-5.51946E-1,-9.337821E-2,8.5375065E-1,1.2019511E-1,-8.29936E-1,1.759437E-2,-1.428568E0,-9.6569633E-1,1.8324524E0,-4.8069164E-1,6.3094664E-1,-2.4989493E-1,1.2561725E0,-2.7065814E-1,-9.0903115E-1,-1.2409079E0,1.4411774E-1,1.1296268E0,3.3071098E0,5.2908327E-2,-1.0175714E0,9.478821E-1,-1.8166296E-1,8.5066445E-3,-1.6398667E0,1.1886994E0,2.1454494E-1,-2.0514818E-1,1.4532739E-1,-1.0710183E-1,-3.9861718E-1,2.7197416E0,-1.3224595E0,8.202667E-1,1.6151459E0,1.23847965E-2,-4.152851E-1,-3.482237E-1,1.7497508E-1,-9.342985E-2,6.260086E-1,-6.459388E-1,2.9294586E-1,3.6856368E-1,-4.0802768E-1,1.8636979E0,3.30677E-1,-9.092726E-1,8.267006E-1,-9.0586856E-2,4.597069E-1,1.9534035E-1,-1.5546876E-1],"categories":[],"categories_nodes":[],"categories_segments":[],"categories_sizes":[],"default_left":[0,0,0,0,0,0,0,0,0,0,0,0,0,0,0,0,0,0,0,0,0,0,0,0,0,0,0,0,0,0,0,0,0,0,0,0,0,0,0,0,0,0,0,0,0,0,0,0,0,0,0,0,0,0,0],"id":26,"left_children":[1,3,5,7,9,11,-1,13,15,17,19,21,23,25,27,29,-1,31,-1,33,35,-1,37,-1,39,41,43,-1,45,-1,-1,-1,-1,47,49,51,-1,-1,-1,-1,53,-1,-1,-1,-1,-1,-1,-1,-1,-1,-1,-1,-1,-1,-1],"loss_changes":[6.77284E0,1.421887E1,2.5636356E1,9.656149E0,3.9164207E1,4.599944E0,0E0,2.0523603E1,8.452048E0,3.7799664E0,1.0774181E1,2.6487684E0,1.7012493E1,1.8331663E1,3.0156805E1,1.5791701E0,0E0,6.8982124E-2,0E0,4.6486835E1,1.6241638E1,0E0,1.6103258E0,0E0,2.6473486E0,2.9905228E1,1.2845512E1,0E0,1.604108E1,0E0,0E0,0E0,0E0,3.2696842E1,4.3188553E1,2.8600738E0,0E0,0E0,0E0,0E0,2.3178911E0,0E0,0E0,0E0,0E0,0E0,0E0,0E0,0E0,0E0,0E0,0E0,0E0,0E0,0E0],"parents":[2147483647,0,0,1,1,2,2,3,3,4,4,5,5,7,7,8,8,9,9,10,10,11,11,12,12,13,13,14,14,15,15,17,17,19,19,20,20,22,22,24,24,25,25,26,26,28,28,33,33,34,34,35,35,40,40],"right_children":[2,4,6,8,10,12,-1,14,16,18,20,22,24,26,28,30,-1,32,-1,34,36,-1,38,-1,40,42,44,-1,46,-1,-1,-1,-1,48,50,52,-1,-1,-1,-1,54,-1,-1,-1,-1,-1,-1,-1,-1,-1,-1,-1,-1,-1,-1],"split_conditions":[4E0,3E0,3E0,9.1841835E1,2E0,4E0,-8.29936E-1,7.981309E1,5E0,9E0,4.8638035E1,3E0,5E0,7.044588E1,8.21052E1,1E0,-9.0903115E-1,2.782525E1,1.4411774E-1,3.7384266E1,1E0,5.2908327E-2,1E0,9.478821E-1,6E0,6.557916E1,1E1,1.1886994E0,3E0,-2.0514818E-1,1.4532739E-1,-1.0710183E-1,-3.9861718E-1,2E0,4E0,7.6580765E1,1.6151459E0,1.23847965E-2,-4.152851E-1,-3.482237E-1,9E0,-9.342985E-2,6.260086E-1,-6.459388E-1,2.9294586E-1,3.6856368E-1,-4.0802768E-1,1.8636979E0,3.30677E-1,-9.092726E-1,8.267006E-1,-9.0586856E-2,4.597069E-1,1.9534035E-1,-1.5546876E-1],"split_indices":[1,2,2,3,1,0,0,3,0,0,3,0,0,3,3,2,0,3,0,3,0,0,2,0,0,3,0,0,1,0,0,0,0,0,0,3,0,0,0,0,0,0,0,0,0,0,0,0,0,0,0,0,0,0,0],"split_type":[0,0,0,0,0,0,0,0,0,0,0,0,0,0,0,0,0,0,0,0,0,0,0,0,0,0,0,0,0,0,0,0,0,0,0,0,0,0,0,0,0,0,0,0,0,0,0,0,0,0,0,0,0,0,0],"sum_hessian":[1E2,8.4E1,1.6E1,6.4E1,2E1,1.3E1,3E0,6E1,4E0,7E0,1.3E1,6E0,7E0,5E1,1E1,3E0,1E0,6E0,1E0,1E1,3E0,3E0,3E0,1E0,6E0,4.3E1,7E0,2E0,8E0,2E0,1E0,1E0,5E0,6E0,4E0,2E0,1E0,1E0,2E0,1E0,5E0,3.8E1,5E0,6E0,1E0,5E0,3E0,1E0,5E0,3E0,1E0,1E0,1E0,3E0,2E0],"tree_param":{"num_deleted":"0","num_feature":"4","num_nodes":"55","size_leaf_vector":"1"}},{"base_weights":[5.2349634E-2,1.4256813E-1,-5.184773E-1,-2.5200581E-2,1.6180047E0,-8.906015E-1,3.4285355E-1,1.0982748E-1,-2.072587E0,3.0512295E0,3.9285406E-1,3.4936133E-1,-1.5542531E0,-1.5807109E-1,5.494586E-1,-7.6999284E-2,-7.3872054E-1,1.1388253E0,1.2249985E-1,-7.092183E-1,3.3635846E-1,-4.031192E-1,5.0389254E-1,-2.0328808E-1,-2.3241744E0,-1.7241213E-2,-1.0165613E0,1.2673829E0,2.6732436E-1,1.9698717E-2,-3.3884698E-1,4.306412E-3,-1.6411863E-1,-1.14643484E-1,4.999237E-2,-7.823479E-1,-1.7843515E-1,-1.43987E-1,1.22744E-1,-5.4908246E-1,2.7677736E-1],"categories":[],"categories_nodes":[],"categories_segments":[],"categories_sizes":[],"default_left":[0,0,0,0,0,0,0,0,0,0,0,0,0,0,0,0,0,0,0,0,0,0,0,0,0,0,0,0,0,0,0,0,0,0,0,0,0,0,0,0,0],"id":27,"left_children":[1,3,5,7,9,11,-1,13,15,17,19,21,23,25,27,-1,-1,-1,-1,29,-1,31,-1,33,35,37,-1,-1,39,-1,-1,-1,-1,-1,-1,-1,-1,-1,-1,-1,-1],"loss_changes":[5.275333E0,2.1823599E1,9.672874E0,2.2343996E1,1.4604559E1,1.0417838E1,0E0,9.037872E0,2.9073563E0,6.32423E0,5.6112776E0,5.682146E0,7.8486176E0,2.1778992E1,2.8940355E1,0E0,0E0,0E0,0E0,1.0511459E0,0E0,2.4822247E-1,0E0,3.2833868E-1,9.016304E-1,9.469297E0,0E0,0E0,4.0174232E1,0E0,0E0,0E0,0E0,0E0,0E0,0E0,0E0,0E0,0E0,0E0,0E0],"parents":[2147483647,0,0,1,1,2,2,3,3,4,4,5,5,7,7,8,8,9,9,10,10,11,11,12,12,13,13,14,14,19,19,21,21,23,23,24,24,25,25,28,28],"right_children":[2,4,6,8,10,12,-1,14,16,18,20,22,24,26,28,-1,-1,-1,-1,30,-1,32,-1,34,36,38,-1,-1,40,-1,-1,-1,-1,-1,-1,-1,-1,-1,-1,-1,-1],"split_conditions":[8.3357666E1,7.920692E1,9.9516464E1,7.226598E1,2E0,2E0,3.4285355E-1,4.129519E1,1E0,4E0,1E0,5E0,3E0,3.9511234E1,4.1694977E1,-7.6999284E-2,-7.3872054E-1,1.1388253E0,1.2249985E-1,3E0,3.3635846E-1,2E0,5.0389254E-1,2E0,3E0,5E0,-1.0165613E0,1.2673829E0,2E0,1.9698717E-2,-3.3884698E-1,4.306412E-3,-1.6411863E-1,-1.14643484E-1,4.999237E-2,-7.823479E-1,-1.7843515E-1,-1.43987E-1,1.22744E-1,-5.4908246E-1,2.7677736E-1],"split_indices":[3,3,3,3,1,2,0,3,0,0,2,0,0,3,3,0,0,0,0,1,0,0,0,0,2,0,0,0,0,0,0,0,0,0,0,0,0,0,0,0,0],"split_type":[0,0,0,0,0,0,0,0,0,0,0,0,0,0,0,0,0,0,0,0,0,0,0,0,0,0,0,0,0,0,0,0,0,0,0,0,0,0,0,0,0],"sum_hessian":[1E2,8.7E1,1.3E1,7.9E1,8E0,1.1E1,2E0,7.5E1,4E0,3E0,5E0,4E0,7E0,4.7E1,2.8E1,1E0,3E0,2E0,1E0,2E0,3E0,3E0,1E0,3E0,4E0,4.6E1,1E0,1E0,2.7E1,1E0,1E0,1E0,2E0,2E0,1E0,3E0,1E0,2.2E1,2.4E1,6E0,2.1E1],"tree_param":{"num_deleted":"0","num_feature":"4","num_nodes":"41","size_leaf_vector":"1"}},{"base_weights":[3.7452504E-2,-3.597E-1,1.7992805E-1,9.125824E-1,-6.2064403E-1,-6.0823634E-2,5.0533885E-1,-6.758232E-1,1.0899308E0,-1.1830001E0,-2.9037023E-1,5.579734E-1,-5.106821E-1,-9.013567E-2,1.3825812E0,-3.8423997E-1,-4.7231037E-2,1.2225158E0,-6.944847E-1,-5.747E-3,1.6057411E0,-8.384254E-1,-9.124913E-2,-1.9022636E0,3.415495E-1,3.6489544E0,3.377739E-1,-7.946777E-2,5.8213808E-2,1.7941971E0,-1.5963136E-1,1.3433328E0,-1.1916037E0,4.1905415E-1,-1.5973146E0,-5.175952E-1,7.728491E-1,-8.2669705E-1,-7.6934457E-1,1.0120666E0,-7.60913E-1,9.3831256E-2,1.3970277E0,7.107239E-1,-3.9933205E-1,4.2144015E-2,6.895829E-1,1.0772759E0,-1.8085079E-1,-1.0317727E0,-1.8486643E-2,-7.68971E-2,2.6933596E-1,-2.113472E-1,-6.41368E-1,3.8009796E-1,-2.5891078E-1,9.117096E-1,-1.4671516E-1,6.335049E-2,-4.3536416E-1,-1.2154102E-1,6.781777E-1,-5.96295E-1,3.8193513E-2,2.8805834E-1,1.7409516E-2,-1.8806154E-1,4.249306E-2],"categories":[],"categories_nodes":[],"categories_segments":[],"categories_sizes":[],"default_left":[0,0,0,0,0,0,0,0,0,0,0,0,0,0,0,0,0,0,0,0,0,0,0,0,0,0,0,0,0,0,0,0,0,0,0,0,0,0,0,0,0,0,0,0,0,0,0,0,0,0,0,0,0,0,0,0,0,0,0,0,0,0,0,0,0,0,0,0,0],"id":28,"left_children":[1,3,5,7,9,11,13,15,-1,-1,17,19,21,23,25,-1,27,29,31,33,-1,-1,35,37,39,41,43,-1,-1,45,-1,47,49,51,53,55,57,59,-1,61,63,-1,-1,65,67,-1,-1,-1,-1,-1,-1,-1,-1,-1,-1,-1,-1,-1,-1,-1,-1,-1,-1,-1,-1,-1,-1,-1,-1],"loss_changes":[5.779756E0,9.530239E0,5.906476E0,2.4061783E1,2.4095112E1,1.2533275E1,1.6840637E1,1.460641E0,0E0,0E0,1.4299358E1,5.138312E1,2.4653343E1,1.6295092E1,2.955048E1,0E0,2.0895156E-1,5.9701176E0,1.98354E1,1.2839158E1,0E0,0E0,8.873335E0,7.2898865E-1,1.3336834E1,1.1992382E1,3.0328512E0,0E0,0E0,3.013713E0,0E0,1.9661467E1,3.788492E1,5.0800014E0,4.2443943E-1,1.0956972E1,2.4363802E1,2.2509437E0,0E0,2.037941E1,7.880378E0,0E0,0E0,1.0840704E0,5.811659E-1,0E0,0E0,0E0,0E0,0E0,0E0,0E0,0E0,0E0,0E0,0E0,0E0,0E0,0E0,0E0,0E0,0E0,0E0,0E0,0E0,0E0,0E0,0E0,0E0],"parents":[2147483647,0,0,1,1,2,2,3,3,4,4,5,5,6,6,7,7,10,10,11,11,12,12,13,13,14,14,16,16,17,17,18,18,19,19,22,22,23,23,24,24,25,25,26,26,29,29,31,31,32,32,33,33,34,34,35,35,36,36,37,37,39,39,40,40,43,43,44,44],"right_children":[2,4,6,8,10,12,14,16,-1,-1,18,20,22,24,26,-1,28,30,32,34,-1,-1,36,38,40,42,44,-1,-1,46,-1,48,50,52,54,56,58,60,-1,62,64,-1,-1,66,68,-1,-1,-1,-1,-1,-1,-1,-1,-1,-1,-1,-1,-1,-1,-1,-1,-1,-1,-1,-1,-1,-1,-1,-1],"split_conditions":[1E0,1.4572163E1,3E0,3E0,1.5434046E1,3.7384266E1,4.8638035E1,1E0,1.0899308E0,-1.1830001E0,3.0387516E1,3.6779945E1,4.129519E1,2E0,5.9590347E1,-3.8423997E-1,2E0,6E0,1E0,3E0,1.6057411E0,-8.384254E-1,8E0,4.2837E1,4E0,1E0,4E0,-7.946777E-2,5.8213808E-2,3E0,-1.5963136E-1,1E0,5.121935E1,1.1696565E1,2E0,5.767064E1,1E1,4E0,-7.6934457E-1,3E0,6.7324224E0,9.3831256E-2,1.3970277E0,8.3357666E1,7.38546E1,4.2144015E-2,6.895829E-1,1.0772759E0,-1.8085079E-1,-1.0317727E0,-1.8486643E-2,-7.68971E-2,2.6933596E-1,-2.113472E-1,-6.41368E-1,3.8009796E-1,-2.5891078E-1,9.117096E-1,-1.4671516E-1,6.335049E-2,-4.3536416E-1,-1.2154102E-1,6.781777E-1,-5.96295E-1,3.8193513E-2,2.8805834E-1,1.7409516E-2,-1.8806154E-1,4.249306E-2],"split_indices":[2,3,1,0,3,3,3,0,0,0,3,3,3,0,3,0,0,0,0,2,0,0,0,3,1,0,1,0,0,0,0,1,3,3,0,3,0,1,0,2,3,0,0,3,3,0,0,0,0,0,0,0,0,0,0,0,0,0,0,0,0,0,0,0,0,0,0,0,0],"split_type":[0,0,0,0,0,0,0,0,0,0,0,0,0,0,0,0,0,0,0,0,0,0,0,0,0,0,0,0,0,0,0,0,0,0,0,0,0,0,0,0,0,0,0,0,0,0,0,0,0,0,0,0,0,0,0,0,0,0,0,0,0,0,0,0,0,0,0,0,0],"sum_hessian":[1E2,2.6E1,7.4E1,4E0,2.2E1,4.3E1,3.1E1,3E0,1E0,1E0,2.1E1,1.8E1,2.5E1,1.9E1,1.2E1,1E0,2E0,4E0,1.7E1,1.7E1,1E0,3E0,2.2E1,3E0,1.6E1,3E0,9E0,1E0,1E0,3E0,1E0,3E0,1.4E1,1.4E1,3E0,1.5E1,7E0,2E0,1E0,1E1,6E0,1E0,2E0,6E0,3E0,1E0,2E0,1E0,2E0,4E0,1E1,6E0,8E0,2E0,1E0,2E0,1.3E1,2E0,5E0,1E0,1E0,5E0,5E0,2E0,4E0,4E0,2E0,2E0,1E0],"tree_param":{"num_deleted":"0","num_feature":"4","num_nodes":"69","size_leaf_vector":"1"}},{"base_weights":[4.0284824E-2,-4.7580853E-1,1.0864966E-1,-9.3934536E-2,-1.590119E0,1.2247263E0,2.8589547E-2,6.936957E-1,-1.020304E0,-6.078281E-1,-1.0772553E-1,2.3441772E-1,9.264405E-1,-1.0055504E0,1.0873548E-1,1.1326065E-1,5.3938067E-1,-4.1434127E-1,-9.5810704E-2,-6.2347412E-2,2.1322174E-1,6.2646794E-1,5.9726834E-2,1.7985077E-1,-1.5817547E-1,-6.754761E-2,2.0092774E-2,-1.6404462E-1,3.564297E-1,4.9481966E-2,-9.625816E-2,2.7753106E-1,-2.2125845E-1,-1.0298517E-1,2.3005362E-1],"categories":[],"categories_nodes":[],"categories_segments":[],"categories_sizes":[],"default_left":[0,0,0,0,0,0,0,0,0,0,0,0,0,0,0,0,0,0,0,0,0,0,0,0,0,0,0,0,0,0,0,0,0,0,0],"id":29,"left_children":[1,3,5,7,9,11,13,15,17,-1,-1,19,-1,-1,21,23,-1,-1,-1,25,-1,-1,27,-1,29,-1,-1,31,33,-1,-1,-1,-1,-1,-1],"loss_changes":[3.6152434E0,4.9569473E0,8.006777E0,8.004146E0,8.8255787E-1,1.0348184E1,2.3393276E1,3.6420016E0,8.235121E-1,0E0,0E0,7.5109076E-1,0E0,0E0,8.024298E0,7.5474465E-1,0E0,0E0,0E0,9.93014E-2,0E0,0E0,5.5691414E0,0E0,2.6318687E-1,0E0,0E0,3.0663498E1,1.0601488E1,0E0,0E0,0E0,0E0,0E0,0E0],"parents":[2147483647,0,0,1,1,2,2,3,3,4,4,5,5,6,6,7,7,8,8,11,11,14,14,15,15,19,19,22,22,24,24,27,27,28,28],"right_children":[2,4,6,8,10,12,14,16,18,-1,-1,20,-1,-1,22,24,-1,-1,-1,26,-1,-1,28,-1,30,-1,-1,32,34,-1,-1,-1,-1,-1,-1],"split_conditions":[7.960372E0,4E0,1.4572163E1,5.349673E0,6E0,1.1696565E1,1.5434046E1,3.9138708E0,6.2357855E0,-6.078281E-1,-1.0772553E-1,3E0,9.264405E-1,-1.0055504E0,1.6539644E1,2E0,5.3938067E-1,-4.1434127E-1,-9.5810704E-2,2E0,2.1322174E-1,6.2646794E-1,3E0,1.7985077E-1,3E0,-6.754761E-2,2.0092774E-2,3E0,3E0,4.9481966E-2,-9.625816E-2,2.7753106E-1,-2.2125845E-1,-1.0298517E-1,2.3005362E-1],"split_indices":[3,1,3,3,0,3,3,3,3,0,0,1,0,0,3,1,0,0,0,1,0,0,1,0,0,0,0,0,0,0,0,0,0,0,0],"split_type":[0,0,0,0,0,0,0,0,0,0,0,0,0,0,0,0,0,0,0,0,0,0,0,0,0,0,0,0,0,0,0,0,0,0,0],"sum_hessian":[1E2,1.1E1,8.9E1,9E0,2E0,5E0,8.4E1,5E0,4E0,1E0,1E0,4E0,1E0,1E0,8.3E1,4E0,1E0,2E0,2E0,3E0,1E0,1E0,8.2E1,1E0,3E0,1E0,2E0,4.7E1,3.5E1,1E0,2E0,1.6E1,3.1E1,1.3E1,2.2E1],"tree_param":{"num_deleted":"0","num_feature":"4","num_nodes":"35","size_leaf_vector":"1"}},{"base_weights":[3.159615E-2,-1.185528E-3,3.3085787E-1,8.282744E-2,-6.1718184E-1,-5.9204746E-2,1.3361326E0,2.4379683E-1,-1.0781457E0,7.93557E-2,-1.16111E0,2.598465E0,2.7188906E-1,-2.3648703E-1,3.2473984E-1,-1.526537E-1,-1.6029103E0,-3.433064E-2,1.3356272E0,-1.5251514E0,2.6268312E-1,9.3317264E-1,1.5932007E-1,3.194046E-1,-3.9067793E-1,-1.055495E-2,-1.371425E-1,-3.181292E-1,5.1565934E-2,-5.6126934E-1,-7.964402E-2,1.8326115E-2,-9.497847E-1,7.9966396E-1,-2.6484224E-1,-9.321099E-2,-4.9627736E-1,-1.6213512E-1,8.795929E-3,8.674622E-4,-5.6171897E-3,-1.1711541E-1,-2.6042748E-2],"categories":[],"categories_nodes":[],"categories_segments":[],"categories_sizes":[],"default_left":[0,0,0,0,0,0,0,0,0,0,0,0,0,0,0,0,0,0,0,0,0,0,0,0,0,0,0,0,0,0,0,0,0,0,0,0,0,0,0,0,0,0,0],"id":30,"left_children":[1,3,-1,5,7,9,11,13,15,17,19,21,23,25,-1,27,29,31,33,35,-1,-1,-1,-1,37,39,-1,41,-1,-1,-1,-1,-1,-1,-1,-1,-1,-1,-1,-1,-1,-1,-1],"loss_changes":[3.5482063E0,5.1745353E0,0E0,1.57439575E1,5.02541E0,1.2306579E1,1.1384369E1,2.2699857E0,3.6406336E0,1.0328959E1,8.008492E0,2.5830193E0,3.5676184E0,1.9458672E-1,0E0,2.694959E-1,1.2953873E0,2.0213787E1,2.0055199E1,7.4036026E-1,0E0,0E0,0E0,0E0,2.674623E-1,3.836749E-4,0E0,1.6253442E-2,0E0,0E0,0E0,0E0,0E0,0E0,0E0,0E0,0E0,0E0,0E0,0E0,0E0,0E0,0E0],"parents":[2147483647,0,0,1,1,3,3,4,4,5,5,6,6,7,7,8,8,9,9,10,10,11,11,12,12,13,13,15,15,16,16,17,17,18,18,19,19,24,24,25,25,27,27],"right_children":[2,4,-1,6,8,10,12,14,16,18,20,22,24,26,-1,28,30,32,34,36,-1,-1,-1,-1,38,40,-1,42,-1,-1,-1,-1,-1,-1,-1,-1,-1,-1,-1,-1,-1,-1,-1],"split_conditions":[9.9516464E1,8.3357666E1,3.3085787E-1,7.920692E1,2E0,7.044588E1,2E0,5E0,3E0,6.557916E1,1E1,4E0,8.028408E1,3E0,3.2473984E-1,2E0,3E0,6.487552E1,9E0,1E0,2.6268312E-1,9.3317264E-1,1.5932007E-1,3.194046E-1,1E0,2E0,-1.371425E-1,1E0,5.1565934E-2,-5.6126934E-1,-7.964402E-2,1.8326115E-2,-9.497847E-1,7.9966396E-1,-2.6484224E-1,-9.321099E-2,-4.9627736E-1,-1.6213512E-1,8.795929E-3,8.674622E-4,-5.6171897E-3,-1.1711541E-1,-2.6042748E-2],"split_indices":[3,3,0,3,2,3,1,0,0,3,0,0,3,1,0,0,2,3,0,0,0,0,0,0,0,0,0,0,0,0,0,0,0,0,0,0,0,0,0,0,0,0,0],"split_type":[0,0,0,0,0,0,0,0,0,0,0,0,0,0,0,0,0,0,0,0,0,0,0,0,0,0,0,0,0,0,0,0,0,0,0,0,0,0,0,0,0,0,0],"sum_hessian":[1E2,9.8E1,2E0,8.7E1,1.1E1,7.9E1,8E0,4E0,7E0,7.1E1,8E0,3E0,5E0,3E0,1E0,3E0,4E0,6.6E1,5E0,7E0,1E0,2E0,1E0,2E0,3E0,2E0,1E0,2E0,1E0,3E0,1E0,6.5E1,1E0,3E0,2E0,1E0,6E0,2E0,1E0,1E0,1E0,1E0,1E0],"tree_param":{"num_deleted":"0","num_feature":"4","num_nodes":"43","size_leaf_vector":"1"}},{"base_weights":[2.5249429E-2,-1.6206713E-1,1.9128546E-1,9.441451E-2,-1.0333613E0,8.7130743E-1,8.5296206E-2,-1.130932E-1,1.0295334E0,9.454565E-1,-1.8936E0,-4.172866E-1,5.847199E-1,4.6393603E-1,-5.8766794E-1,-2.1117401E-1,8.262604E-1,-5.021519E-1,1.3205018E0,-2.8530343E0,-2.2090721E-1,-1.0399212E0,5.82902E-1,1.7358074E0,-8.7257594E-2,-3.6438382E-1,1.4626421E0,-9.216636E-2,-1.8575388E0,-3.0353624E-1,6.5983075E-1,-1.3951379E-1,-1.000131E0,-2.918297E-1,3.0520022E-1,-3.4874036E0,2.7048016E-1,1.7363775E0,-6.669849E-2,-6.7939985E-1,1.0377537E0,6.246562E-1,-5.970806E-1,9.138712E-2,-8.5746664E-1,7.493775E-1,1.6468324E-1,5.776291E-2,-1.9294557E-1,4.1843414E-2,-9.706129E-1,4.3842316E-2,2.5308153E-1,-2.4794427E-1,-1.1562877E0,3.1054232E-1,-3.0212197E-1,-4.7746184E-3,6.9773406E-1,1.00072406E-1,-1.651096E-1,4.3431476E-2,-3.8313144E-1,3.239851E-1,4.06469E-2,-3.6443418E-1,1.1613465E-1],"categories":[],"categories_nodes":[],"categories_segments":[],"categories_sizes":[],"default_left":[0,0,0,0,0,0,0,0,0,0,0,0,0,0,0,0,0,0,0,0,0,0,0,0,0,0,0,0,0,0,0,0,0,0,0,0,0,0,0,0,0,0,0,0,0,0,0,0,0,0,0,0,0,0,0,0,0,0,0,0,0,0,0,0,0,0,0],"id":31,"left_children":[1,3,5,7,9,-1,11,13,15,17,19,21,23,25,27,29,-1,-1,-1,31,33,35,37,39,41,43,45,47,49,-1,51,-1,-1,-1,-1,53,55,57,59,61,-1,63,65,-1,-1,-1,-1,-1,-1,-1,-1,-1,-1,-1,-1,-1,-1,-1,-1,-1,-1,-1,-1,-1,-1,-1,-1],"loss_changes":[3.1722324E0,1.082417E1,1.5280323E1,7.49012E0,2.0515131E1,0E0,1.354709E1,9.035632E0,1.5560274E1,4.35791E1,1.2208454E1,1.7420479E1,2.1036095E1,1.2941683E1,1.1154813E1,4.154299E0,0E0,0E0,0E0,4.189602E0,4.7135553E0,5.546541E1,8.358094E0,4.397316E1,6.90607E0,1.58862505E1,5.250331E0,2.320025E0,1.4209085E1,0E0,1.5992343E-1,0E0,0E0,0E0,0E0,2.6720734E0,1.2765203E1,4.1682425E0,1.7323788E0,2.6479445E0,0E0,1.635395E0,7.1575775E0,0E0,0E0,0E0,0E0,0E0,0E0,0E0,0E0,0E0,0E0,0E0,0E0,0E0,0E0,0E0,0E0,0E0,0E0,0E0,0E0,0E0,0E0,0E0,0E0],"parents":[2147483647,0,0,1,1,2,2,3,3,4,4,6,6,7,7,8,8,9,9,10,10,11,11,12,12,13,13,14,14,15,15,19,19,20,20,21,21,22,22,23,23,24,24,25,25,26,26,27,27,28,28,30,30,35,35,36,36,37,37,38,38,39,39,41,41,42,42],"right_children":[2,4,6,8,10,-1,12,14,16,18,20,22,24,26,28,30,-1,-1,-1,32,34,36,38,40,42,44,46,48,50,-1,52,-1,-1,-1,-1,54,56,58,60,62,-1,64,66,-1,-1,-1,-1,-1,-1,-1,-1,-1,-1,-1,-1,-1,-1,-1,-1,-1,-1,-1,-1,-1,-1,-1,-1],"split_conditions":[4.129519E1,3.517558E1,4.1694977E1,2.8797941E1,2E0,8.7130743E-1,2E0,2E0,4E0,3.6859837E1,3E0,7.920692E1,6.96636E1,1.5434046E1,2.0081148E1,3.1736639E1,8.262604E-1,-5.021519E-1,1.3205018E0,1E0,7E0,2E0,2E0,2E0,3E0,1.4572163E1,2E0,8E0,3E0,-3.0353624E-1,3E0,-1.3951379E-1,-1.000131E0,-2.918297E-1,3.0520022E-1,1E0,8E0,1E0,3E0,1E0,1.0377537E0,3E0,8E0,9.138712E-2,-8.5746664E-1,7.493775E-1,1.6468324E-1,5.776291E-2,-1.9294557E-1,4.1843414E-2,-9.706129E-1,4.3842316E-2,2.5308153E-1,-2.4794427E-1,-1.1562877E0,3.1054232E-1,-3.0212197E-1,-4.7746184E-3,6.9773406E-1,1.00072406E-1,-1.651096E-1,4.3431476E-2,-3.8313144E-1,3.239851E-1,4.06469E-2,-3.6443418E-1,1.1613465E-1],"split_indices":[3,3,3,3,0,0,2,2,0,3,1,3,3,3,3,3,0,0,0,1,0,1,1,0,0,3,1,0,0,0,0,0,0,0,0,1,0,1,1,0,0,2,0,0,0,0,0,0,0,0,0,0,0,0,0,0,0,0,0,0,0,0,0,0,0,0,0],"split_type":[0,0,0,0,0,0,0,0,0,0,0,0,0,0,0,0,0,0,0,0,0,0,0,0,0,0,0,0,0,0,0,0,0,0,0,0,0,0,0,0,0,0,0,0,0,0,0,0,0,0,0,0,0,0,0,0,0,0,0,0,0,0,0,0,0,0,0],"sum_hessian":[1E2,4.7E1,5.3E1,3.7E1,1E1,1E0,5.2E1,3.1E1,6E0,3E0,7E0,2.6E1,2.6E1,1.4E1,1.7E1,4E0,2E0,2E0,1E0,4E0,3E0,1.6E1,1E1,9E0,1.7E1,8E0,6E0,1.3E1,4E0,2E0,2E0,1E0,3E0,2E0,1E0,5E0,1.1E1,3E0,7E0,4E0,5E0,7E0,1E1,7E0,1E0,2E0,4E0,9E0,4E0,2E0,2E0,1E0,1E0,1E0,4E0,7E0,4E0,1E0,2E0,4E0,3E0,2E0,2E0,3E0,4E0,6E0,4E0],"tree_param":{"num_deleted":"0","num_feature":"4","num_nodes":"67","size_leaf_vector":"1"}},{"base_weights":[2.2758743E-2,9.4471015E-2,-3.3714136E-1,-7.078091E-2,6.014665E-1,-7.5160437E-3,-1.4065447E0,2.0671482E-1,-2.3825926E-1,-3.7551355E-1,1.1167789E0,-3.177845E-1,6.1452407E-1,-3.382187E-2,-5.4007E-1,-1.245084E-1,1.5565094E0,-6.806554E-1,-1.8242748E-2,-5.415415E-1,1.18002325E-1,2.2901097E-1,1.4489849E0,2.4120483E-1,-7.306449E-1,-1.6493797E-2,4.7078934E-1,1.3446775E-1,-7.9560477E-1,1.17247015E-1,6.610077E-1,1.0161464E0,-1.6982226E-1,-2.1085396E-1,-2.4485111E-1,-3.6913076E-1,9.014816E-1,2.9723256E0,6.96609E-1,4.1046143E-1,-6.5373234E-2,-2.4763848E-1,-3.8484193E-2,8.593941E-2,-2.1296819E-1,1.3217774E-1,-2.6160747E-1,6.312775E-1,-1.2320424E-1,-3.8551295E-1,5.0070982E-2,-1.0564499E-1,-2.7510453E-2,-7.431336E-2,4.101349E-1,1.1224275E0,2.1511918E-1,-1.21623464E-1,5.6999475E-1,2.3817444E-2,1.4830628E-1,-4.7664642E-3,-9.106922E-2],"categories":[],"categories_nodes":[],"categories_segments":[],"categories_sizes":[],"default_left":[0,0,0,0,0,0,0,0,0,0,0,0,0,0,0,0,0,0,0,0,0,0,0,0,0,0,0,0,0,0,0,0,0,0,0,0,0,0,0,0,0,0,0,0,0,0,0,0,0,0,0,0,0,0,0,0,0,0,0,0,0,0,0],"id":32,"left_children":[1,3,5,7,9,11,13,15,17,19,21,23,25,-1,-1,27,29,-1,31,33,-1,35,37,39,41,43,-1,45,-1,-1,-1,47,49,-1,51,-1,53,55,57,59,-1,-1,-1,-1,61,-1,-1,-1,-1,-1,-1,-1,-1,-1,-1,-1,-1,-1,-1,-1,-1,-1,-1],"loss_changes":[2.6385849E0,7.1640396E0,5.98197E0,3.070096E0,1.0991815E1,2.897278E0,1.8344674E0,1.1370881E1,1.8275923E1,1.2342215E0,3.7970734E0,2.4840806E0,3.03828E0,0E0,0E0,1.4102457E1,2.9089937E0,0E0,6.1306686E0,1.629107E-1,0E0,6.0163913E0,9.3906975E0,4.7798568E-1,2.3679423E-1,2.9910222E-1,0E0,6.5464535E0,0E0,0E0,0E0,8.626915E0,1.2982271E1,0E0,3.34384E-2,0E0,2.4790661E0,2.5207176E0,1.1379414E1,7.185006E-2,0E0,0E0,0E0,0E0,4.8740804E-2,0E0,0E0,0E0,0E0,0E0,0E0,0E0,0E0,0E0,0E0,0E0,0E0,0E0,0E0,0E0,0E0,0E0,0E0],"parents":[2147483647,0,0,1,1,2,2,3,3,4,4,5,5,6,6,7,7,8,8,9,9,10,10,11,